solver_type L2R_LR
nr_class 2
label 1 0
nr_feature 143142
bias -1
w
-0.0001303768897705943 
-0.0007220882367671862 
0.0001549790752077557 
5.245356904553001e-05 
9.184331972735509e-05 
-0.0003100899042050175 
9.737479686036977e-06 
6.009757489150807e-06 
0.0002153181512524552 
4.757107212155554e-05 
0.001922700292929137 
3.249807899620992e-05 
0.004847296637082746 
0.0001492644709801049 
2.677996865810878e-05 
0.0001378260241864171 
6.344924039959028e-05 
-0.0004463745926759213 
7.886891340444273e-05 
0.0005025845180355767 
1.980830404495836e-05 
0.0001540674314153429 
5.020468703359219e-06 
0.0002073002678268886 
0.0004738196503817406 
-0.0005629924220351933 
-1.089552220260411e-06 
9.265790927226842e-05 
3.066213834939207e-05 
2.184239036140396e-05 
-1.713069258755471e-06 
0.0001187198954629065 
8.816297105954254e-06 
8.848795870205684e-05 
2.677911984985177e-05 
2.190885174046679e-05 
3.031022094511222e-05 
-0.000200975644874532 
0.003061950915271265 
6.877835187565307e-06 
-1.683659041728185e-05 
2.546486639518491e-05 
4.508422255043615e-06 
3.020731845280096e-05 
1.795850521535109e-05 
-8.63316861145632e-07 
3.759397611520774e-06 
-6.954731165764056e-05 
-3.695674768619597e-05 
9.569032720534565e-05 
1.281211952003986e-05 
-6.129930859341494e-06 
-1.763394904371253e-06 
0.002810990520525293 
1.986608256176776e-05 
5.698203705071009e-05 
-0.002363973716163099 
6.84494345892096e-07 
4.728351055581132e-05 
8.491223423373978e-07 
0.0001743075770990629 
-0.0001632971839627833 
-7.645796143248685e-06 
0.001124137016303729 
-5.923651052230574e-06 
-0.0001128872973049243 
-0.0001022009095294247 
-0.02052311751473909 
0.0002692077125547246 
0.0001636954876647363 
5.562492469566269e-05 
4.732886313708159e-05 
-4.356459276888202e-06 
8.354876056076597e-05 
0.0001134559283498092 
4.089783195112213e-07 
-0.0001390872449806257 
0.0003775024261711118 
-0.00147108747324905 
0.0001293020514805934 
-0.000716145917591555 
0.000286170158887197 
8.772037041957532e-05 
7.675712470516766e-05 
5.794516055123657e-05 
4.043337619904832e-05 
2.516175301361281e-05 
-0.008229252369956397 
0.0002936210184151906 
7.33950702979567e-05 
5.591015994608929e-05 
0.0001228268516153078 
0.0001165593562368763 
-7.274313068526078e-05 
0.002223275431334582 
7.514290529014799e-05 
7.833949388028087e-06 
2.394571192091654e-05 
8.083245554138304e-06 
7.598826905876277e-05 
-0.0004719977589776593 
0.002850043553694516 
-5.654665133452593e-05 
-0.003030272549696152 
3.445984961811432e-05 
0.000669796128732191 
3.211336279939349e-06 
7.357777227523494e-05 
4.749841636187911e-05 
-0.0003703993517772473 
6.531258540323947e-05 
0.0001392008728743664 
1.188245754014414e-06 
4.820291513070712e-05 
0.01149250660397857 
-0.007062661083979425 
3.486236692196632e-05 
-1.104794856379211e-05 
0.03080755065683896 
2.062256352929302e-05 
-0.0006045641922528602 
0.0005245501527430111 
-3.443422786557799e-06 
-0.0008881088770285552 
0.0001236140264712168 
0.01908371557404686 
0.0001000443669083193 
-0.001519183463360163 
1.403593774748568e-05 
-0.0003647208063338417 
-0.0002317745975191183 
-0.004354224826160365 
6.833332961620607e-07 
-0.0005098698339423901 
7.747566321329048e-05 
-0.0002490431374801982 
3.413906547328693e-05 
2.408638094064806e-06 
8.937708377993001e-05 
4.848288108325164e-05 
2.790522958826324e-06 
-2.279845598627342e-05 
1.130313375089236e-05 
-6.098920359812363e-05 
0.0003328951974139478 
0.0045242940416145 
1.625431304961032e-06 
8.636734386019e-06 
8.085343373222848e-06 
3.412323376801899e-05 
-0.0007019131556100814 
4.573639455797886e-05 
4.555913842829743e-05 
0.0001247940475133694 
-2.742390138051006e-06 
-0.0001595460910629587 
5.395987443008602e-05 
-3.01104062296007e-05 
-0.0001181827714716151 
-0.01785727096071118 
0.0005807079816630694 
0.0002757017652498447 
-0.0007183482355192615 
9.459552078626348e-05 
2.94468993010753e-05 
0.0002577917330185176 
6.783548036630358e-05 
-0.0005990005686978303 
1.384008335250626e-05 
8.517392495728957e-06 
6.688707025975663e-05 
6.783548036630358e-05 
1.321509959125878e-06 
-0.003866870453409181 
-0.00211522371329782 
3.29629648703177e-05 
2.053886358315968e-05 
4.743493701203937e-06 
-0.0006105559804994812 
-0.000777234872905083 
0.0002444981880033596 
9.915394844931554e-06 
-0.006334431790402627 
-0.0001197120065237253 
-6.542812746426711e-05 
-9.901103329212866e-05 
-0.0004145771698827272 
-2.216565403409443e-06 
1.586289659414431e-05 
0.0003355420183621566 
-3.0894144498912e-05 
0.002362720421093157 
2.92982821095383e-06 
0.0009293327689130501 
4.059262909927307e-06 
8.951839623898873e-06 
-1.201570506691189e-07 
2.708122174041046e-05 
2.121392215270203e-05 
-3.114463306539954e-06 
-0.0001980444306042521 
-9.821074764016765e-06 
4.467736348780514e-05 
0.0002329881120716876 
4.475919811949436e-06 
5.387458965434428e-06 
0.0001554046787585664 
-0.002983903965663937 
0.0002982739262098796 
-0.0004773754688766266 
0.0002093916382651716 
-0.001446857954813886 
-0.0001434112888900007 
2.503922213282497e-05 
5.721404717958462e-05 
1.237691826213535e-05 
9.223567089857716e-06 
0.0001236140264712168 
-0.0007561751565167018 
0.0001241615018142439 
0.01230040570581978 
1.311856693451748e-05 
-5.80733783864151e-05 
-1.912117909253485e-06 
0.0002100452866114412 
-1.365508674789991e-06 
1.866107092926604e-05 
-0.000116274363857452 
0.006243470788745561 
1.912103432776531e-05 
3.792919346558341e-05 
0.0002880701710025858 
1.042099339507186e-05 
4.922688861990748e-05 
-9.246936891517973e-05 
1.342912068980696e-06 
-0.0006686582890704056 
1.682023700227097e-05 
2.599985658692636e-05 
8.619664635143097e-05 
0.0003854508590874124 
0.0001848304383039698 
-0.0001173206511428875 
9.717774839888446e-05 
1.668900599865976e-06 
-1.869788810288765e-05 
-0.0001526814803246147 
9.266012319592646e-06 
0.0001030511943218661 
-0.001040723319321307 
-0.009797053964698793 
0.01226022317574604 
-2.124219153635133e-05 
-0.001894334161104691 
-2.115029568964926e-06 
0.0002049622432193014 
0.0001564918272631347 
0.0002556767580716489 
1.384175805771878e-08 
-1.255802753066462e-05 
0.000691785577533753 
4.702172572624855e-05 
-0.0001312715821214068 
1.171598288427767e-05 
5.717439032913831e-06 
3.683756587579541e-05 
1.593338368275379e-05 
1.102950868928963e-05 
6.745288048072948e-06 
6.017889590784068e-05 
-0.0004083093084249182 
-0.008355880587602773 
0.0005962060987267377 
4.209042136318668e-06 
-0.001455282417953164 
2.363889747783334e-06 
7.197139098463707e-05 
3.928844524855291e-05 
5.819783420651556e-06 
7.014661395402235e-05 
-1.610602512463084e-05 
7.420224603993039e-05 
1.477682946565905e-06 
3.395861940993987e-05 
0.001349691325531636 
0.002697455238593927 
0.0001772863828246455 
4.671484800676235e-05 
0.003290688433897091 
-9.770544724567025e-05 
-0.0001364038439827875 
-0.001020468982468071 
-0.0004190175135082936 
-0.04412281196041944 
2.420709541566875e-05 
0.0009701480208498446 
8.028995863097053e-05 
-0.0001703406172987445 
-0.001552762351396741 
1.497036525373171e-05 
0.000233203316836816 
-9.066306117524005e-06 
5.038848804941525e-07 
3.360667495620671e-05 
-0.0005014455068528363 
9.975712197484388e-06 
0.004215962586231119 
-1.865062222010716e-06 
0.0004211269152861852 
2.306430374292682e-05 
-0.0008804432877669486 
4.025177556811097e-05 
2.006294971587557e-05 
8.07009573504253e-05 
0.001879975092749724 
1.552072365384445e-06 
-0.001243476356718622 
0.0008881062719043342 
5.217627338464978e-06 
3.592769478223238e-05 
-1.583964266259331e-05 
0.004850637995941916 
7.472030866785551e-05 
8.550927960149163e-06 
4.508422255043615e-06 
5.264683944019864e-05 
7.137022707790282e-06 
1.56718613108066e-05 
-3.064358082575442e-07 
2.176011810062408e-05 
5.824357068719074e-06 
0.0001815661709587417 
7.72729859886901e-06 
1.652461399294344e-05 
1.408231185060811e-05 
-6.111542890285551e-05 
1.762024550678648e-06 
-0.0009426792247209332 
0.0001814387760151258 
3.388547193043075e-05 
-0.01451481580573979 
0.0003146732155986528 
5.179240005077989e-05 
1.293410017831083e-06 
2.793930261626302e-05 
-0.006820747994243627 
0.0001792344748190258 
1.137073368919613e-06 
0.001036502551432471 
2.924854744440489e-05 
9.23468465832148e-06 
3.143257405785622e-05 
8.001327398161517e-05 
0.0003512578561527156 
1.52364440135385e-05 
-1.741393629770459e-05 
4.251981014631826e-06 
-7.246215324546451e-08 
-0.0004734549778691243 
-4.767775880814965e-05 
0.0002658768587052381 
0.0001031055866607629 
-4.99238625775769e-06 
-6.162293782274654e-05 
1.569560215757073e-06 
0.0001119055113320378 
-1.228486579913022e-05 
1.399671267943111e-05 
-2.78845668089651e-06 
4.517070569006365e-05 
-0.003493689187166989 
-0.00316545822504434 
-0.0002072874769263864 
-1.055824784785796e-05 
-0.001172750404646711 
0.0003735828968684645 
4.637458882315009e-05 
0.001490139143035517 
0.0002917682387315817 
7.703469091902231e-05 
8.07009573504253e-05 
0.0001177172212411962 
8.514969815319227e-05 
4.212575799191263e-05 
2.59024722566943e-06 
-0.02562912108144157 
0.0001687069692766908 
4.475919811949436e-06 
4.090185365864825e-06 
2.972829278533451e-05 
-0.0003337020334872621 
-5.059775903406305e-06 
-0.0006665865125197483 
1.617232146413441e-05 
-2.532219862639918e-05 
-2.958196204262184e-05 
2.234223655373111e-06 
-0.0001286240767917992 
-7.694946489575191e-07 
-0.003669154363471101 
-0.0007013441689310252 
0.0001148081506811768 
1.845517037333911e-05 
0.0008813376753212194 
-1.167468093416352e-06 
4.217877449867705e-05 
4.990085546579865e-06 
4.475919811949436e-06 
5.806693576258561e-05 
-5.13655375893925e-08 
-1.411895780879165e-06 
-3.165071660495188e-05 
-2.980275741100902e-05 
0.0007455258687996911 
0.0004118497285321755 
5.897567305050804e-06 
2.574239972037667e-05 
-5.00257299908625e-05 
5.783891553507008e-06 
0.0002336032611043697 
4.380665375303216e-05 
4.209042136318668e-06 
-2.393302570182151e-05 
4.48239561071698e-07 
-0.0004025254327564565 
2.824805420830893e-05 
6.313288355104486e-06 
-5.829628822619776e-05 
-1.363762033892851e-06 
0.00010336491596461 
-0.0001499090512961705 
9.129981605273408e-05 
1.148928528046716e-05 
-0.004256763185341789 
2.94468993010753e-05 
2.001716424868612e-05 
0.0001849279260076474 
4.304696212481711e-05 
-0.0005109445218820904 
6.625103687311704e-06 
4.508422255043615e-06 
9.052896452674607e-05 
-0.008352384068338577 
-1.264163540503446e-05 
-0.005332118690335026 
0.0001257068584839515 
-9.929850914580029e-05 
-1.299776173802911e-06 
0.0001648632635874204 
6.650118509067942e-05 
0.0003358302894521378 
0.0001855435609335665 
0.1052922607294608 
-1.470451612976176e-05 
0.0005585017591077509 
0.0004183236534964891 
0.0001303457404568291 
1.282050884363973e-05 
-0.000119319811895999 
-3.587526832679073e-06 
0.0001441756888442459 
6.274870018164048e-05 
2.860828603820693e-05 
0.0008517962229158568 
-9.194624483104859e-05 
0.0006379544846035804 
2.761578068486002e-05 
2.766365289459401e-05 
2.204463648642661e-05 
7.82303960997347e-06 
0.0003775939883252062 
0.0002596213468482271 
4.65007050311289e-05 
-0.003334975530725502 
0.001034356441108735 
1.188245754014414e-06 
-3.578225055804946e-05 
1.878720905602748e-05 
0.03679230012840311 
-0.004451465399518097 
5.639052215024646e-05 
2.233926421805588e-05 
-0.0003798516315367665 
1.689459223603428e-05 
2.036809296138366e-05 
6.500160743394652e-05 
5.023349098203653e-05 
1.868961223095227e-05 
-0.0005790936718393075 
0.0002429279409122297 
-0.0002177896740635706 
6.818744482963233e-05 
0.0001848161264183251 
0.0008840131054439008 
2.94468993010753e-05 
-0.001183126248666567 
-3.119814516567964e-07 
-0.004180063173151258 
7.531722331229106e-05 
0.00119666648449344 
0.002745174647257719 
0.0004036185609110116 
-0.0005223340435508826 
-2.805292685783758e-05 
8.079951764091365e-05 
-0.003425910306046298 
3.191917659730669e-05 
5.469352870429217e-05 
4.194822275409278e-05 
3.360577627919256e-06 
2.713175345867498e-05 
-0.0002075267565495768 
-1.345896790934134e-06 
4.63330808797931e-06 
7.674693511220342e-06 
0.0001181213039711356 
-0.000694559034079674 
9.888463215831436e-07 
0.000111119151071861 
-0.0004277715772722863 
-2.530528242681555e-07 
-8.241166812797626e-05 
-0.0008768697419960619 
0.004058167561249361 
-3.051328094238183e-05 
-0.002353788087560557 
-3.778622877486171e-05 
7.975752106959691e-05 
0.000212385162526971 
-4.202652563874909e-05 
-9.397143493272891e-06 
0.0003199354674681744 
0.000170448484525716 
7.267338451499587e-05 
1.130540444802513e-05 
9.016844510087231e-06 
0.0002320208401699253 
1.681572959595818e-05 
0.001474019913724895 
3.735317203711748e-05 
-1.525348022460521e-06 
-9.018490063320739e-07 
-0.0005661237144763724 
-0.000154053079187556 
4.253879654305609e-06 
-0.0006038575324351839 
0.0006241433356982205 
-3.103501154536167e-07 
1.666019145257186e-06 
-0.01534527069578014 
2.323221065213422e-05 
6.188700156966676e-06 
-3.961679696963905e-07 
4.901845989620528e-05 
-1.493283260699408e-07 
-0.0005272457654312037 
0.0008723257710755738 
-1.535422981253524e-06 
-0.001010644326298831 
-0.0004592032136607689 
0.0008388932416246628 
6.867578551556198e-06 
0.0001438616223516117 
0.003409216744149666 
8.093615868161589e-06 
4.380665375303216e-05 
-7.91601771737469e-06 
0.001843886297726904 
3.416246947874127e-05 
-5.280719781201388e-07 
-0.0005363699812983682 
-0.0002876173401994474 
0.0003831514447694287 
8.269397783437235e-05 
0.0001495576955028224 
0.0005176834654296616 
1.224999625814729e-05 
0.0001749187773338554 
2.878745286915352e-05 
8.564065246906204e-05 
7.851384843923101e-05 
-0.0004054794368932749 
-0.0001725425025859714 
1.829939318503978e-06 
-1.5264925689183e-05 
1.163956684130311e-05 
-1.260947321822572e-05 
0.001477089888477336 
1.924974121799596e-07 
1.030646024559705e-06 
0.0001593743682414186 
4.299331457730297e-05 
1.42613960993219e-05 
0.003697249035771756 
4.092722994871692e-05 
3.865260440545024e-05 
5.314106222319458e-05 
-0.0003462987741835188 
2.51522904780059e-07 
6.721238008660213e-05 
0.000283570904287963 
0.0001119762231057683 
1.869262506783452e-05 
2.093107474556735e-05 
4.971778800690759e-05 
-1.93165658514979e-05 
-0.001706431407170948 
1.707688205430259e-05 
-0.002833344983092069 
0.0009645651301943731 
3.995255524085981e-05 
1.169913806990236e-05 
-0.000109522327356445 
0.001228125711701673 
2.660374219500697e-05 
8.053482050815358e-05 
6.727556088629927e-05 
-2.200736472487674e-05 
-0.0002917105457165259 
7.949628868374004e-05 
4.373404191950069e-06 
-0.01478808897572235 
4.909109328238568e-05 
0.001151923335902111 
0.0001498354331098994 
1.148914061434493e-06 
-9.54889140084122e-06 
0.0001082034985667608 
2.270473468652321e-05 
6.815217511917923e-06 
0.001981437125804216 
-0.00012992352134878 
6.427087773311151e-05 
0.0006663916453327726 
4.194822275409278e-05 
9.178284753499533e-07 
-0.0005486634891167197 
-0.0004648898318643106 
5.964780311107182e-05 
9.564550188962991e-06 
7.82761846868741e-05 
7.837534980823042e-05 
1.845517037333911e-05 
1.399157417365741e-06 
1.293025031936006e-05 
4.556689365811183e-05 
-0.0001221082863995493 
-0.0001689208802393493 
3.444188272483141e-05 
4.505760383013585e-05 
-1.600500642476634e-06 
9.814918619206095e-07 
2.994073050746342e-05 
7.509110931055568e-06 
4.91997417862447e-05 
0.02321030127017093 
0.001827678014881167 
-0.0006007183959975409 
-0.0241360569216337 
-0.0001060014846412591 
1.010870697739001e-05 
9.781073662602313e-05 
-0.002346903503073638 
6.8983610537794e-05 
0.001036502551432471 
-0.0002416345714461959 
-0.0001087221892239822 
2.649184340523639e-05 
-0.0001848216234848517 
-3.815937841151428e-05 
-0.002389703231246574 
3.792919346558341e-05 
-0.001285049825271787 
9.786317068045038e-06 
4.901845989620528e-05 
-0.0005018499484121313 
-6.367344549209863e-05 
1.432612992080043e-05 
1.88540245314778e-05 
-3.491928752990459e-05 
4.475919811949436e-06 
7.843383215732113e-06 
-0.00207336953260153 
0.00491560958391337 
7.267999908470017e-05 
-0.0006703309379364073 
1.367496018875305e-05 
-1.36565431857757e-07 
0.001653381942716842 
1.237259718721746e-05 
-3.948440013949251e-06 
-0.004932017390788954 
3.61558516464129e-06 
2.747165883150792e-06 
3.11034758115509e-05 
0.0001035799418180199 
2.194843384468742e-05 
6.478636638637817e-05 
4.968650308681671e-05 
3.530061208484387e-05 
2.162917830454909e-05 
-5.613076834664823e-07 
9.718743194098789e-08 
-7.726459417799593e-05 
-0.0005685381555808156 
-0.0007183695945498558 
5.169761464227209e-05 
-1.217093930006536e-06 
-0.003135937993830345 
2.87672892689881e-05 
5.232160569631949e-06 
4.549830640317918e-05 
0.0001085309667437584 
5.264683944019864e-05 
3.503975172715741e-05 
0.00015909734367177 
0.0008095577484882635 
0.0001369996346752258 
-4.158130770017456e-07 
5.092973279036983e-05 
2.584901468970483e-06 
0.0009359666446155904 
1.395261479413162e-06 
-0.0001694452464308636 
0.0001795294757657033 
9.435859575808411e-05 
1.720709068672139e-05 
8.143521935706472e-05 
5.042965690259925e-06 
2.994073050746342e-05 
0.0004198716300504845 
2.254369664743873e-05 
1.429031299900417e-05 
0.0001177172212411962 
0.06254368057423351 
0.00109390486968631 
0.0004288250276939367 
2.505353317000188e-05 
4.192458085172846e-07 
-0.00468815270613855 
-1.499609787456242e-05 
0.0002600295969103053 
2.464907160691111e-05 
0.0003287728295172729 
-0.000462876793551395 
0.000151539599469782 
-0.003976102716551556 
0.00048395696677455 
0.0002971287074683513 
4.209042136318668e-06 
0.001067949113191985 
2.008187481343688e-05 
0.0006831931373504018 
-1.619118451560114e-05 
6.210777260427603e-05 
-0.0002132519089155422 
-6.095987304002146e-05 
5.276087736566549e-05 
-0.001566829361505785 
-0.001448288724245258 
9.735836220591665e-06 
2.910979881593696e-05 
7.322036976006277e-05 
1.333242724036073e-05 
1.626143327674269e-06 
7.74980149569036e-05 
-0.0004772465685565228 
-0.0005630421475351286 
7.993608086262599e-05 
8.147728877669679e-05 
1.007063451293743e-05 
0.0001780564772303071 
6.833332961620607e-07 
5.494309944835611e-05 
-0.0006605837006453318 
6.083724322354805e-06 
3.348109856653503e-05 
-0.002821401096886875 
4.777984547924359e-05 
-0.0001754707092698631 
-4.475517032620877e-07 
6.790300232764601e-05 
0.0002549244940816732 
-0.0006423191096187318 
5.448985276908693e-05 
-0.0004206159210358042 
-0.0002358472086210624 
0.001694769065462229 
0.0001958272947308218 
0.0002523240990835237 
0.0001209007381097494 
6.721334991241342e-05 
-2.938764314928491e-07 
-0.001397830971508946 
-4.060274752716733e-05 
-0.0005992628653165628 
1.975731317595348e-06 
-0.001530994315409825 
3.886863806769973e-05 
-0.007633684228879245 
1.814601520198077e-05 
2.919833623149695e-05 
6.646902303784255e-06 
8.312772017754393e-06 
-8.425920594156766e-07 
-4.225798018213018e-05 
-0.0001193170265378501 
4.6606388032849e-05 
-0.0001537821392390322 
2.49512667163713e-06 
8.576675979067893e-05 
4.256113735427201e-07 
0.0001600265479632303 
4.168083395887186e-06 
-4.211233693319556e-05 
-0.0001941861649127791 
-2.005562224304395e-05 
-4.929278378021742e-06 
4.360015930526198e-05 
5.215692160377866e-05 
2.61290581718875e-05 
-0.0001101027488171063 
-6.411699257997909e-05 
-9.525591902227279e-06 
5.738749410329269e-05 
4.725373072403281e-05 
-0.002417872874894986 
-1.989072010215849e-06 
0.0004577447941787748 
-3.167358919260987e-05 
0.0001649061192045823 
3.491439778631563e-05 
3.010460177758798e-06 
0.003641595237644832 
1.004826587930934e-05 
1.650921078948092e-05 
-1.613949040694275e-05 
0.0002361508344579009 
1.291349977148425e-06 
-2.768511346262172e-08 
-0.02000021592520302 
0.001930969471146509 
4.096340180617525e-05 
-0.0002854458426187479 
0.0003649565718842035 
5.400772967317519e-05 
-0.001656903534212172 
-5.960604716540788e-07 
4.36133553223516e-05 
6.721238008660213e-05 
-3.151660899663106e-05 
5.417602143150257e-05 
-0.0001150348391149795 
0.0002041135032369433 
-0.001244385001938707 
0.0001815661709587417 
0.0001173723134439182 
4.873099635094866e-05 
4.379781194801384e-05 
0.0001601673441933041 
1.495267461584808e-05 
-5.326507487579141e-05 
-0.0003056570107781097 
0.0004080377267228685 
-0.0007379576086779764 
4.3168603454639e-05 
-8.182502001965695e-05 
3.253488576072184e-07 
-0.001233895676988108 
-0.0004211159216966908 
-0.0004752451602722302 
6.901614884720293e-06 
1.440994954566319e-05 
-2.290823318904428e-05 
0.001322843646099498 
0.01608282555724798 
1.725053853529603e-05 
1.42613960993219e-05 
0.003072293514889374 
3.415275710285766e-05 
4.325560675070115e-05 
2.283211331038607e-05 
-1.104794856379211e-05 
4.647624970672402e-05 
8.142764418649332e-05 
0.01043300906691921 
0.01651232569714678 
3.949719749589392e-05 
6.116081756469491e-06 
5.264683944019864e-05 
7.578353339969321e-05 
-5.50169759903711e-05 
0.0004030531609367466 
3.461644967586973e-06 
6.83330501213928e-06 
-8.561056281314696e-05 
0.001487593982115553 
2.234223655373111e-06 
0.000134094836974252 
-0.001102021908416342 
5.618948951975781e-05 
0.002165683266431906 
-7.680019973045191e-05 
-0.002347337769621556 
2.306430374292682e-05 
3.004359002287552e-05 
4.626757282860057e-05 
6.772013996566993e-06 
0.0005718749852365611 
-1.229574286374761e-05 
-0.0006662496509763408 
0.0001221026108783761 
1.322726656660844e-05 
-0.0002360550495039283 
-0.0008544068455376742 
8.234324935700435e-05 
6.690855815162082e-06 
4.719239715744664e-05 
0.0003792246897018212 
0.0001780312246185354 
0.001820932085091125 
-2.365005008723439e-07 
3.40377191750114e-06 
0.0007137793932737641 
1.646671127476756e-05 
1.677144030841673e-05 
-5.757639158400062e-05 
-0.0002567960365333395 
0.0013023663372126 
0.0001742795622345741 
4.508422255043615e-06 
4.176737578188943e-08 
0.00230866384226498 
3.460474728957859e-05 
1.65862858529257e-05 
2.138771967285702e-05 
8.892509083481323e-05 
0.0003790364885875944 
2.847397962215077e-05 
5.040730086319146e-05 
-5.805333340358471e-05 
0.003059191553744118 
-0.0006863586186941899 
-1.992372899869279e-05 
0.0001326420466157281 
-0.0005672190497624318 
6.664148730189041e-06 
-0.007987334107583606 
-0.0001076659139556917 
0.0002480654538771547 
1.21740863119402e-05 
0.000233203316836816 
0.0007009333275015526 
6.038541459273299e-05 
0.0003105041878320436 
-0.0003533681739221121 
8.743475597065667e-05 
-9.576062322857539e-07 
-2.668405753580413e-07 
-0.0003426706679980433 
1.78627598808339e-06 
3.550280389546529e-05 
-4.367262278371018e-07 
2.951182149751921e-05 
0.0001618483830736367 
3.743056652013384e-05 
-3.721945488939908e-06 
2.721955564392464e-05 
2.972829278533451e-05 
0.002101473643218652 
-0.0004204212914700213 
0.0005790657572123892 
-7.707313330324152e-06 
4.936116277436635e-06 
4.48828576573432e-05 
3.461864036017102e-05 
-1.075168669010395e-05 
-6.112059402189488e-05 
-0.000476804332009496 
-1.433272573519309e-06 
0.0001704316339285014 
1.206581953200642e-06 
-0.0002033923590158598 
-1.722003058679033e-05 
-0.001431608417159886 
-0.01040513466968124 
1.65585071369989e-05 
0.0001407122044543924 
0.001354324741983578 
-3.96867323109978e-05 
-0.000354961877167344 
3.286749665976952e-05 
3.01927072963665e-05 
-0.0002124553074291599 
0.001070579848820292 
4.329677223109502e-05 
4.806998562285206e-06 
-4.475517032620877e-07 
8.688810125212162e-07 
-3.167358919260987e-05 
6.14828724000879e-05 
4.076804642025518e-05 
-1.349747989515395e-05 
0.001509746257585258 
1.507986606841627e-05 
3.358461029837865e-06 
2.267769053538706e-05 
0.000101274930303509 
0.0003759834249627903 
1.631025842316914e-05 
0.0004203478251172119 
0.0008283323353836765 
3.319898292278012e-05 
2.346578547626301e-05 
-0.0005641263749071747 
-5.075488798576455e-05 
-8.603481049772141e-05 
1.258793788471055e-05 
0.0002096696555820382 
3.032161960104509e-05 
-0.0004774019641184837 
0.0003067634579531933 
2.833217647791973e-05 
6.012842735054719e-05 
-8.06274624038414e-05 
3.032383643699146e-05 
-1.778002638538301e-05 
-2.276554311899705e-06 
2.108169396439307e-05 
7.849568776659857e-06 
0.0003794707496317116 
3.020803865739959e-05 
1.286651949807446e-07 
0.0001180135008962546 
-7.748929107649904e-06 
4.608459094831599e-05 
-0.001068613791615444 
1.072219368954537e-05 
-5.642183818233399e-05 
5.847797355121816e-05 
5.728650589209206e-06 
-0.0003523963344419159 
3.540440217606588e-05 
6.737984628965159e-06 
0.0001074504886198035 
-0.0005363699812983682 
0.000211197852842199 
0.01928732915750775 
-0.0003823643016311089 
7.703469091902231e-05 
0.0006301091679039414 
-4.728833966636234e-05 
-0.0001677850653158481 
0.0004249259369166234 
7.503329035144496e-07 
4.513525604170663e-05 
-1.924146261175771e-05 
6.499615799241985e-05 
0.0003689050255347258 
-0.0005676006048848351 
3.068405495887216e-06 
-0.002543503145138282 
-3.527221063634858e-06 
0.0001187288542034239 
-6.237352232643149e-05 
0.0002008176079403815 
-1.689537683575796e-05 
-9.208755131012142e-05 
1.159716080878003e-05 
0.0002167387534686108 
0.000293970691422479 
1.765782634169587e-05 
1.096166021575614e-05 
8.797110802487926e-05 
-3.214906546363829e-06 
4.508422255043615e-06 
1.953915056000542e-05 
0.0007580729771751889 
4.487978550478055e-05 
3.258557708192552e-05 
1.52364440135385e-05 
1.443865504152214e-05 
4.365858859697551e-06 
1.751845269404107e-05 
-9.01590358559078e-05 
0.000212547496021182 
1.330972331861415e-08 
2.336440879941653e-05 
0.001716544427790531 
1.389992426393791e-05 
-5.577138077097762e-05 
-0.0012779464501632 
0.0002295956625120937 
-1.338391958416448e-06 
-4.470969963599941e-07 
2.692830446104144e-05 
4.351859347851815e-05 
5.024096058003109e-05 
-0.001215769845761735 
-0.0008405208074015239 
1.015940001591883e-05 
-1.433272573519309e-06 
-0.0004695717124678056 
-2.487470795250243e-05 
-0.0001254698333157858 
9.011151220151929e-05 
-4.818774395642863e-05 
2.869942023907941e-06 
0.0003513496486255976 
0.0007196590507052434 
2.649629170355043e-05 
-0.0002670675952062146 
-3.540843717145705e-05 
-2.870725888226668e-05 
0.0001250695831620151 
-0.00110000388539174 
-3.535693233981774e-06 
-0.0001083764859740227 
3.195179761253953e-05 
-3.319044111391169e-06 
-0.0001698420306267963 
-0.0001415339133307354 
-3.47495258154016e-05 
1.332416118575647e-06 
-1.932110067112005e-06 
4.672115771788083e-06 
-0.0004277715772722863 
4.360015930526198e-05 
-0.000598609920605058 
-2.291564459524453e-05 
0.0001582850003234456 
1.51113661345997e-05 
-0.00105616541926617 
0.000102904720438531 
2.322289561422442e-05 
0.001406036843196449 
0.0002670532093449159 
7.357523895040077e-05 
-1.869246122002277e-05 
4.209042136318668e-06 
-0.0007276154647661826 
-4.58332437820333e-05 
6.573045427104999e-06 
0.0006097919239031 
0.0001667445135628941 
0.001408714815912303 
1.775797164241678e-05 
0.005854564778304332 
-0.002345326028231895 
-7.472710806205784e-05 
0.0001908514047175458 
-3.948440013949251e-06 
9.492339675325402e-05 
-0.001487278104298139 
-0.0001112907835625509 
-0.0003538748167177191 
2.663707387264446e-05 
4.823995158298989e-05 
1.942322980565838e-06 
3.262569756748435e-05 
0.0006069143783861016 
0.0001025170110358311 
0.0003183779122285634 
0.0003746904696074213 
-0.002527842067676521 
2.165173094723882e-05 
0.0001892807225209435 
2.74957628529268e-06 
5.850521831251294e-05 
0.0003509153797868932 
0.000393815105554464 
0.0006128648262364068 
6.40613603436972e-05 
-0.0005708921503449881 
-5.034823946673165e-05 
0.0003585017028252021 
3.49741861900803e-06 
-0.0001674447376812055 
0.0006312536411983743 
0.0001090119973113212 
-6.334717838521974e-05 
4.409676132075071e-05 
1.926188112043568e-05 
-0.002640032162568963 
0.01008006360685961 
-1.683673440141591e-06 
1.045694478696598e-05 
1.395261479413162e-06 
-9.029130294204818e-07 
-0.0001575227798189563 
0.0001516309320760131 
8.763904284896566e-05 
-0.0001093338165632794 
-5.929865789236991e-05 
0.0001031055866607629 
-7.886784385604606e-05 
4.728351055581132e-05 
4.843585477401106e-05 
5.487359412265161e-05 
0.0001221026108783761 
1.357915104323636e-06 
-1.131220406926962e-06 
0.001625296212280793 
-0.0002013811698722876 
-0.0003113717565706211 
-0.006281666846958871 
1.732355190402658e-05 
1.539071538998717e-05 
-8.964165579944763e-05 
0.0001644874974171954 
-0.0002540426413903285 
0.001806856358188541 
-0.0004830025302495745 
-2.81507076730596e-05 
-1.416021445019861e-06 
0.0001811933433525412 
7.95604899617071e-05 
4.893834291025057e-05 
-0.0009974411816170657 
2.94468993010753e-05 
3.90639975760058e-05 
-0.001364036348948526 
4.820291513070712e-05 
0.008950613415090718 
-0.002425243319468653 
-0.0009965258917606701 
0.0003433043703838522 
4.041724436804561e-05 
0.0003251408981734277 
1.19660552425102e-05 
8.087497962736799e-06 
6.721334991241342e-05 
6.40484088390338e-05 
9.915394844931554e-06 
0.002401873603461479 
-0.002740376544297011 
0.0006224783464306652 
6.493851661728856e-07 
-3.926073091277249e-05 
-0.00263718977410417 
8.554071384627376e-05 
0.0004820595153623787 
-9.865522215634484e-06 
7.849568776659857e-06 
0.002464873297037956 
0.000139335786143257 
1.591090929806152e-05 
-1.870202296723448e-07 
2.477162132574408e-05 
-0.001280180673818573 
2.94468993010753e-05 
-7.34045516276724e-06 
-0.01350015734337242 
0.0736822229583044 
3.004359002287552e-05 
-0.0002652705809929289 
0.0003487842013255334 
0.0003101060932312263 
0.0002788269966580721 
-0.001481390976744199 
-0.0001558717438072928 
-1.911493138463438e-05 
-2.099562503386399e-05 
-8.144294613353152e-07 
-0.00174114983004563 
7.68818463550863e-05 
0.008958377871978195 
6.71967280650712e-05 
4.925096191150575e-05 
0.0008474046928417175 
1.404330968706274e-05 
-3.109753711608383e-05 
3.90173009268293e-05 
0.0001091336857883156 
0.0001681938787706502 
0.0004521789050760994 
1.130731393702106e-05 
0.0003727485256636453 
0.008114843481904284 
6.053639274014566e-06 
7.323527243531947e-05 
0.0001877894181673628 
-7.946460843684999e-06 
0.005985790458385342 
3.007891902915642e-05 
3.352046834267359e-05 
4.352744129219563e-06 
7.346450777143345e-06 
0.0001562026954581062 
0.0003721868337429479 
2.31042858682422e-06 
1.646671127476756e-05 
-5.3001595366715e-05 
7.752108291604441e-05 
-0.000682652084129042 
-0.001773567229927791 
4.775732136345169e-05 
2.277822733809132e-06 
0.0001562873217588356 
-8.780104897701352e-05 
3.054482774016659e-05 
-2.979861763226422e-06 
-0.002318918399503623 
7.397329680413334e-06 
7.703469091902231e-05 
-1.869840299360555e-05 
-1.155506598217947e-05 
-0.004325124583254273 
0.0002086242640916878 
1.98222259635113e-05 
0.0006814073464204547 
1.238446143364107e-05 
-0.0005850282867943077 
4.752269893228881e-05 
-0.0001875979386589504 
0.0001295532954965535 
-0.001872054681717129 
0.000175131145479969 
-0.0002342898309152672 
5.80448409862724e-05 
-1.247103280323658e-06 
0.000159872161725252 
-0.0009685846962737044 
-6.375653688097866e-07 
9.186139285583579e-05 
-0.0003333340871377424 
5.13164393865449e-05 
-0.0001389406147267548 
0.000233203316836816 
9.316217309675815e-05 
0.0001144767897354851 
0.001036502551432471 
1.883226203005201e-05 
-3.156637821399663e-05 
0.0001261875073531466 
-1.108526163448093e-06 
0.000316612272719351 
6.861299871173243e-06 
8.504643049786863e-05 
0.000106825069297298 
1.133106453210902e-06 
2.591044351162526e-07 
-9.130379848000118e-05 
1.08023923665692e-05 
6.27138783308129e-05 
2.919833623149695e-05 
-0.03590526326425958 
5.126772694315383e-05 
1.282501765402008e-06 
2.546486639518491e-05 
-1.443432797981979e-06 
3.96436148839791e-05 
-0.0006891929229362032 
-3.958008858687346e-05 
1.516708505505143e-05 
3.843475875833246e-06 
1.266848204936228e-05 
3.089317036848438e-05 
3.100993520888954e-06 
-3.693299130470442e-06 
4.555913842829743e-05 
-2.297256855981612e-05 
-0.0005777606904260343 
2.880923486886083e-06 
0.0003053944734547836 
-3.632643065602673e-05 
0.003697249035771756 
2.516175301361281e-05 
4.489809197109949e-05 
-1.247103280323658e-06 
6.40613603436972e-05 
1.067705080579821e-05 
0.0003916830245442032 
0.0002062168963988641 
9.490770124717761e-05 
7.86158789790861e-05 
5.37123836775574e-06 
-0.0004847819568645185 
-1.746662604822677e-07 
8.962375906617842e-05 
-0.001736217563755603 
1.075439360383854e-05 
-4.723466005469364e-06 
3.792919346558341e-05 
4.853405176908555e-05 
4.012474631931437e-05 
3.557751475802532e-06 
-3.583124664135346e-05 
-9.214602642889439e-06 
0.0001428630608239557 
-1.757579058865478e-06 
-0.0001795541728186699 
1.113494368760399e-05 
-0.0006272741851457315 
0.0001230667647704719 
3.304878786063759e-05 
4.708354533308924e-06 
3.706919396831807e-05 
-0.001038237667622516 
-0.0001550263355917702 
-0.0001140516183172322 
-0.001367446258750423 
-0.00145882762836196 
0.0001631450861637922 
2.469408851090739e-06 
1.708123473937063e-05 
-5.736676447786668e-05 
1.646671127476756e-05 
-0.0001098916198324253 
5.179240005077989e-05 
-3.215381186250224e-06 
4.140971406075668e-05 
5.17899428592344e-05 
8.164063612184663e-05 
-0.0002492298874171611 
3.592769478223238e-05 
4.282044665396242e-07 
0.002275101004901656 
0.000294637393603274 
-0.0002781626701894101 
2.119805868391539e-06 
8.354876056076597e-05 
0.001044576983956418 
2.206320738715858e-05 
8.06328967351295e-07 
2.594495982199014e-05 
0.0001047288558794544 
-0.0002884589664761731 
2.234223655373111e-06 
3.212424585803278e-05 
8.152224060788741e-05 
4.564993994249006e-05 
-0.0008019038681276816 
0.000778997976386689 
5.300258842934031e-05 
0.0002722132391861871 
0.0004811124327149981 
6.469653683777213e-05 
-0.002585383650156048 
9.773492823225992e-05 
1.900573328215209e-05 
1.846521994299316e-05 
0.002413977302356841 
2.121549331975425e-05 
-0.0009397689490797721 
-0.0007132020032367309 
3.399877468890177e-06 
-3.937656274607127e-05 
-0.0002328356399503415 
9.716049391769003e-06 
-0.02014248475718424 
3.358109727158348e-05 
3.820767402669468e-05 
-0.0002440300340712864 
0.0001676195496570002 
6.721238008660213e-05 
-2.17739808012492e-07 
1.171598288427767e-05 
0.0001072626212795746 
6.769803032479379e-06 
0.001036502551432471 
4.520590218399422e-05 
0.001142485680933709 
0.0001231109987232535 
-0.0003129286171288856 
2.476771950996216e-05 
-3.85796815248952e-07 
2.862991227091862e-06 
-3.167358919260987e-05 
-0.0001973418099658371 
9.207194986220566e-06 
1.45451583841956e-05 
2.380390548087099e-05 
-6.162053913508005e-05 
-0.0004986129919577981 
-0.002768215499955231 
0.0001183540813334648 
4.44026329646981e-05 
3.936965481480859e-05 
0.0001326729549585193 
1.873543494612598e-05 
5.728650589209206e-06 
-9.886412178606366e-05 
5.770194148259821e-07 
-2.914814411309888e-05 
9.308817874518925e-05 
-0.0006532197738078573 
0.0002435915548631506 
0.000160060300679158 
5.371781450164405e-05 
5.37847239849402e-05 
2.464001600733354e-06 
1.745935026195467e-05 
8.870597920896321e-05 
0.0001116863669210088 
0.0003062383136096444 
-0.005409576763408843 
-0.0005471210953454145 
5.836306081322277e-06 
0.0003444116240810314 
8.007959072185409e-05 
-0.000303434109246631 
4.192587443157625e-06 
0.0001393605265516288 
5.480830107878068e-06 
-1.05930028742884e-05 
8.443157619783714e-05 
9.341390768794385e-06 
5.516004795033863e-05 
4.335766612502258e-05 
-0.007099145578297616 
5.751719345747668e-06 
-0.0001608733017713865 
0.002560485951512838 
0.003690740399954074 
-0.001035555116306747 
-0.0005873656277113756 
2.027390238553147e-05 
-0.0001577425124305271 
5.819783420651556e-06 
-9.029130294204818e-07 
-4.346111476689349e-07 
-1.080877402769681e-05 
-8.347832015756198e-06 
2.411685163994933e-05 
-0.002545805182920355 
1.54980499851405e-05 
-4.902493273894385e-05 
5.361253430511677e-05 
-0.1647031395518345 
0.001221514251535972 
2.650485540707592e-05 
1.300106200822362e-06 
9.246765189514737e-05 
0.001036502551432471 
0.0004903310136527988 
1.654604633305005e-05 
-0.0007182364168022564 
-0.0004277715772722863 
-0.0003749045355590836 
4.960781571502394e-06 
-0.004467759441639575 
1.035053794837641e-05 
5.358960552447656e-05 
2.108089469160079e-06 
4.202142969331124e-05 
0.00170600792776937 
-0.0003584178168975507 
3.004148355217192e-05 
3.253488576072184e-07 
8.682092373038679e-05 
-0.002169752079103055 
8.996980385464823e-05 
1.900573328215209e-05 
0.0004815949710565931 
1.297641411958801e-05 
6.721238008660213e-05 
0.0003988193005613884 
-0.0007369794591688763 
9.790423663429265e-05 
-0.002225690229377973 
6.909404738227773e-05 
-7.91601771737469e-06 
1.348232778419005e-05 
-0.0006045641922528602 
-1.917130270258718e-06 
4.48239561071698e-07 
4.377774111691909e-05 
1.831813567936318e-06 
-0.0003944634172172797 
2.289283744470582e-06 
-2.928507995429917e-05 
3.004359002287552e-05 
0.000326391233687127 
5.075050870334918e-07 
-8.029594692781546e-05 
0.0008752369139006782 
0.0001046929226727023 
2.713175345867498e-05 
3.598817594474916e-05 
-0.0001757999294739205 
8.280549193918319e-06 
2.901248554424927e-05 
0.0003353720638907721 
-8.347832015756198e-06 
2.713175345867498e-05 
1.215420148652135e-06 
5.757002908180811e-05 
2.22979208006343e-06 
4.28828722630448e-06 
-2.189620369736457e-07 
2.022179287791923e-05 
9.029123902482841e-05 
3.180923481726951e-05 
9.389261965196207e-06 
0.000603464947249429 
6.551445177382318e-05 
3.67020976200915e-05 
5.3357617152696e-05 
0.0003053944734547836 
9.412651055506704e-05 
-0.00221946955538865 
3.5341138302476e-06 
8.007959072185409e-05 
0.001333728315405433 
-0.0003022743397241121 
5.573568529606797e-05 
0.003818484902842915 
-6.764092326679175e-05 
-1.131220406926962e-06 
2.588494951676366e-05 
-0.001003069534353682 
-0.000523015772674431 
2.212684065997123e-05 
-2.584319443910682e-06 
2.675493264025661e-05 
0.0001156582314372008 
-0.0001902392393580885 
0.0002842588459884704 
-0.0013645672929291 
9.569032720534565e-05 
1.922876296489274e-06 
0.003600027717931014 
0.0001143554639256926 
0.0005223845085092511 
-0.0001877003856275569 
0.003055669254303864 
0.001870827632973332 
1.505138414239218e-05 
8.22894728731965e-05 
-3.536669133415296e-05 
-4.788031161428769e-07 
2.598774220151192e-05 
3.032383643699146e-05 
-0.006782991315327245 
-3.7749549240098e-05 
-6.48923288429702e-05 
0.0005014931411620548 
0.0005704186432607443 
3.647704210846765e-06 
0.000402994237875808 
5.793997009100738e-05 
-0.002037264632764239 
0.004426816396856018 
0.000285856237151905 
0.0003074353045856892 
6.917157383586302e-05 
7.979451991986808e-05 
6.052771699970456e-05 
0.0006720942682800469 
1.652439393031879e-05 
0.0003492576649765038 
6.087891259258198e-05 
3.456461563367847e-05 
2.847300816756204e-05 
2.271190134827992e-05 
8.363920576647332e-05 
-0.00100049595755964 
-3.472943405585558e-08 
4.071394003767121e-07 
8.623775229936317e-05 
0.0004065653837834442 
4.209042136318668e-06 
6.844973818662829e-05 
0.0002574203970325676 
-3.314384569137632e-05 
-0.0009362178816192644 
2.011178411069558e-05 
7.862997073348782e-05 
-1.272198890588763e-05 
-0.0004826199053141595 
-1.36125631900979e-06 
0.001395376257645344 
0.002445961426258872 
2.546486639518491e-05 
0.0003226909896148903 
1.974107159136969e-05 
-0.01955721688785544 
8.336166791774371e-06 
2.235297953026037e-06 
-0.000707229434465512 
1.352775047646539e-05 
2.306430374292682e-05 
8.199679560819673e-05 
0.0001652393156126544 
1.057034408014319e-05 
0.0003890136714517857 
-0.0001983773770675971 
-1.177064669699978e-06 
-0.001080896478924466 
0.004013210065646093 
0.0003499626016094104 
-0.000118911250657267 
2.571144970252764e-05 
0.0003478155810668247 
4.960781571502394e-06 
0.0001184561647084798 
0.0001414186423993144 
2.469408851090739e-06 
-5.06023665832622e-05 
0.000719078435055559 
0.0001505477257304961 
-4.424722477004619e-06 
1.159716080878003e-05 
0.0003862148278840491 
-0.0001025868749079773 
6.649021439669823e-05 
2.888896422891469e-06 
-0.0006701092925475591 
-6.800235398544345e-07 
-0.0003679152295861742 
1.276064939397543e-05 
8.93340942210708e-07 
6.917157383586302e-05 
-4.34102321563331e-05 
2.658925540603552e-05 
-4.094603520374255e-06 
-0.0004009645842080034 
-2.576995856889312e-05 
1.541416754645084e-05 
0.0004752724007647733 
3.901663539730149e-06 
0.0001026919250301697 
0.001370805173338339 
-0.00016934888590269 
4.085058786149818e-07 
-4.369507238581976e-06 
5.3222925146287e-05 
-0.0002355211930497045 
-0.000461590760589773 
-2.712138543438315e-08 
1.898814310766403e-06 
2.713175345867498e-05 
2.74985816235659e-05 
0.0001855475811212752 
-0.0004648898318643106 
7.703469091902231e-05 
3.010460177758798e-06 
7.739507769429363e-05 
0.0001326568730881562 
1.829939318503978e-06 
-0.001825534568634104 
7.749024992570252e-06 
2.402644131881137e-05 
-3.377092533181246e-05 
-0.0008370485027928173 
-0.0003452751285291956 
1.426546401196403e-05 
7.849568776659857e-06 
-2.378434121176036e-06 
5.273831950143999e-05 
-0.0004277715772722863 
1.412598493894345e-05 
-2.95339400236163e-05 
0.0001529226878613682 
0.0001609186654973047 
-9.887959343577756e-05 
-2.006677056033604e-06 
0.001411955422859827 
0.0001942066958712559 
-0.0005027320339428865 
-1.984814110077029e-05 
4.369539110401478e-05 
7.999544759600552e-06 
1.431168312233511e-06 
0.0003061310785016328 
5.733965697350349e-05 
-7.238901330869815e-07 
-0.0001613626265908453 
5.495538353342501e-05 
3.341379205256176e-06 
2.341447584256764e-05 
0.0007360725115235292 
2.977891106654748e-05 
2.699757417136709e-05 
1.99473837385795e-06 
6.362259545333447e-06 
0.0002124594140751657 
2.189155383140679e-05 
0.00676687258592795 
-0.0001482356219192485 
0.0001631618988560903 
0.0007457810592802771 
-0.006127179695646718 
-0.0001449549578872256 
1.42613960993219e-05 
2.553705271270269e-05 
5.594014688808898e-05 
3.180923481726951e-05 
2.824805420830893e-05 
0.0001714669662170984 
3.630039409124939e-06 
0.000105582964658459 
-3.597179937396441e-05 
-0.0003531761928914279 
1.599396157578404e-06 
7.560084142627946e-05 
0.000160634793060446 
-6.813171945352113e-05 
-0.002513587492142891 
5.599789900677532e-05 
-4.795561455789703e-06 
0.0002374397909258129 
-1.260482107953508e-06 
0.0001743500504245859 
3.193381629253509e-05 
2.415022812298589e-06 
2.678530040883218e-05 
0.0005859992755368903 
-0.0001585982024482747 
-9.29965538521417e-05 
-0.000380829105930573 
-1.498465995157544e-06 
0.002654357422454486 
-5.278359255132036e-06 
1.229890803977943e-06 
-3.190904665563592e-05 
-0.0005363699812983682 
-0.0007070738331713514 
-0.0001297135330791416 
-0.0004277715772722863 
-0.000269930399920125 
-0.0002976420747551184 
0.0001307621497445109 
0.0004637668688571402 
2.551266436072702e-07 
8.761598711218331e-06 
0.00137947743150821 
0.0007706467573005565 
0.0001938068599082444 
-7.232036930465754e-06 
-0.0005955694831814809 
5.300094643007975e-06 
2.095979041663826e-05 
6.655637550425511e-05 
8.476440592020828e-05 
0.0001078514942303454 
-3.137324925049703e-07 
-0.0007231013714365349 
2.02521163517224e-05 
-5.555638562900673e-05 
8.455811286253796e-05 
3.755287090825968e-05 
1.469532486476199e-05 
6.540276925005339e-07 
2.071177535420843e-05 
0.0003289353758442185 
-3.171117549115003e-05 
0.002576067831087766 
2.249118080648577e-05 
-1.879382511803878e-06 
-2.240564856540938e-05 
2.49474387227434e-05 
-7.946735681793797e-05 
0.0007558280769118821 
-0.0001419474505837752 
0.0003517851334086808 
7.2161250178636e-05 
0.01268802338210154 
-0.001462332876957953 
-0.01610292031173987 
-0.001567968996915172 
9.45749404153662e-05 
2.322289561422442e-05 
-0.0002825850324267192 
2.905303403158342e-06 
-0.0004543379562177317 
8.636074664059478e-06 
0.0001198653744295528 
6.139656488679133e-05 
0.0002601336425613412 
1.029875089082562e-05 
0.000165119650954174 
2.165910053981034e-05 
-2.370127956069602e-05 
8.825612293982813e-06 
3.416246947874127e-05 
1.088728175341293e-06 
9.053048256024882e-05 
-4.219017481188734e-05 
0.0001722452313627694 
0.001662430967517667 
0.0009073750706689643 
1.443210313796899e-05 
6.691625776505013e-05 
-4.678319290565426e-05 
0.0002325005922657296 
6.238211729569157e-05 
-0.02146772010031974 
1.384175805771878e-08 
0.0002493054312717109 
1.400852086243555e-05 
-1.039893898539801e-05 
0.000233203316836816 
6.721238008660213e-05 
2.915385816645446e-05 
4.873099635094866e-05 
3.061412238500087e-05 
9.389064222969093e-06 
5.010938637231682e-05 
1.310932410807464e-05 
-1.314785373394275e-06 
0.000149765974866074 
6.727019508278184e-06 
-0.0009666721713757307 
0.001140146310452034 
2.574239972037667e-05 
3.649333266773268e-05 
-6.990599983335793e-06 
-0.0008495838696240525 
-6.284027966815305e-07 
1.368832357112971e-05 
3.136260667492011e-05 
8.339942792598246e-05 
-4.463305546432851e-05 
-0.001332084310427221 
-0.04250524645734897 
5.273831950143999e-05 
-0.0001221268708763755 
-6.892445232381062e-05 
2.26647682189192e-05 
0.0004436482106199491 
2.739449346975119e-05 
-0.0001627538467232321 
2.520657029206073e-05 
6.733114510187871e-05 
-9.431396439277368e-05 
1.765930889222744e-05 
7.207734907500856e-05 
0.0003303309652777485 
0.002258861762946376 
0.0001920605081531235 
-2.938764314928491e-07 
-0.0001182161428541632 
1.720216217719959e-05 
-0.0009054981781808232 
4.978376006790473e-05 
2.420760118453192e-05 
-0.004487226525221392 
3.862650197889027e-06 
5.765638487805643e-06 
-0.000216918345625603 
0.000195643072508707 
7.010856192142856e-05 
4.508422255043615e-06 
0.0009623300020810739 
-0.001103995732166722 
0.009055916317820038 
5.534029415761314e-05 
6.721334991241342e-05 
0.00048395696677455 
6.633744013127721e-05 
-2.647617966538112e-05 
1.52364440135385e-05 
-0.0003829072116089847 
1.819231108350375e-05 
0.0006744443730114584 
0.0001394769874949084 
0.0007526420128997882 
-2.060788991756229e-05 
6.721334991241342e-05 
0.001968384199293652 
0.0002403998343816324 
8.46702415659231e-05 
1.646671127476756e-05 
0.000266904932917388 
-0.0002298605664056283 
8.479832258444769e-06 
1.862222216203322e-06 
0.001674789332163575 
3.091796928583409e-05 
0.0001952180757644527 
-1.917980200170857e-05 
-4.131971410708644e-05 
6.733114510187871e-05 
6.339669843382668e-05 
6.339669843382668e-05 
-4.579059522732431e-05 
-0.0005045658426126629 
5.215435579591984e-05 
1.081967243469079e-06 
0.0001191013145513914 
-0.0005292248159011291 
0.0001330918909361818 
0.0001952180757644527 
4.644037050163328e-05 
2.880923486886083e-06 
3.886863806769973e-05 
2.011178411069558e-05 
4.420895331798768e-05 
4.696923230178372e-05 
0.0002477696969061071 
-0.0002246477620794708 
8.304910380193238e-05 
-0.0002409176829907892 
0.0003097378915758421 
2.742952045585452e-05 
8.920786303344163e-06 
9.016844510087231e-06 
-0.0001578690824771621 
-5.713288857194987e-05 
5.451673429384413e-05 
2.659500531311994e-06 
0.0001372084962263935 
-1.038554343272002e-05 
-7.895898694153686e-05 
-0.0001669058949174492 
6.733114510187871e-05 
-0.0004383201097154516 
0.0004021844771233247 
3.02726932502258e-05 
5.633526026952372e-06 
6.155239677335427e-06 
0.004290969492525695 
-0.03064071265550894 
0.0001621890196032535 
0.0002464834261042959 
-1.22679820402783e-05 
4.58898740331027e-05 
2.044301913897556e-05 
-1.858563126985692e-05 
5.017176164191036e-05 
0.001505542076708628 
-1.083329426740818e-06 
-3.775075397915341e-05 
0.0002758470393199761 
-0.0002990929678259712 
-4.929278378021742e-06 
-0.0004115319955397612 
-0.001819955247684328 
-0.0007852004980996384 
2.138771967285702e-05 
6.065813153336304e-06 
0.001182883734504766 
2.380427218372395e-05 
-1.672610671520589e-05 
-0.0001138851590646898 
2.884421248867467e-05 
0.004908208278099045 
-2.356248855861785e-05 
9.249592624715081e-05 
8.534641355717485e-06 
0.0002038657634646828 
9.329774875029112e-05 
-5.293623031624022e-06 
-0.0001183648467525832 
2.480390785751197e-06 
9.459859753730669e-05 
2.96189302347879e-06 
0.0003822056889932523 
3.946056686586516e-05 
-0.000128326247231693 
9.299543058723431e-06 
4.827722996523031e-06 
-2.481944611575636e-05 
-7.15275195794513e-05 
5.062962116435686e-05 
1.316697041717983e-05 
3.692905843598074e-06 
3.32358411596958e-06 
-3.85796815248952e-07 
-0.0004430983150897296 
3.768883872436784e-06 
0.001239061852124243 
0.0001269804450319741 
9.274612758403898e-06 
4.351859347851815e-05 
1.224130060789874e-05 
0.001028598645361221 
4.807845011739213e-05 
-0.0001117170084834687 
2.505353317000188e-05 
-0.0001110348368800944 
2.766365289459401e-05 
-0.0003914753663608089 
-3.900800034008639e-06 
5.831712838987572e-05 
-0.0005337393196235323 
-0.0002096266698382191 
-0.03477161938955934 
3.491756543053021e-05 
8.64066726179416e-06 
-2.858746752715081e-05 
4.204329092023317e-05 
3.404064430417209e-06 
-2.256719275533916e-06 
0.0006244143349178525 
2.527901536184376e-05 
-0.003201577120140328 
8.707094512460641e-06 
-7.991761466650411e-05 
-6.401741454552907e-06 
0.0001759856960459293 
9.469688282585989e-06 
8.636734386019e-06 
4.839608523307285e-05 
2.450284453546968e-06 
-1.829327115970729e-05 
-3.190904665563592e-05 
1.613628435180311e-05 
-7.45190620189291e-06 
-0.0002213468140059371 
0.0001753229163517699 
0.0008984576351317792 
6.012842735054719e-05 
-4.892178139286585e-06 
2.788596265627042e-05 
-4.555746670503205e-05 
0.0001555542878684353 
7.486456701086528e-05 
-5.299122583005634e-06 
0.0007237504271865746 
-0.0008849899989377232 
-0.0001876510435173076 
-0.0003949921512783788 
0.0001676289340909077 
8.643938544493664e-06 
2.964201721446261e-05 
0.0002364857589199185 
0.0001972654939816211 
5.531085280949248e-05 
0.0001192006708575256 
5.995629523045257e-05 
9.498608012743334e-05 
0.0002087758498357056 
3.139503526367835e-06 
-0.0002751275352323048 
2.435031135800533e-05 
0.004407238056597881 
-0.02604057982784844 
2.94468993010753e-05 
-0.006040833607480238 
0.0003346879961329931 
3.142294082949511e-05 
0.0009759813651272183 
1.739997336712684e-05 
0.001367241255768795 
5.817179177822407e-05 
-6.450310720791377e-05 
7.783760356419167e-05 
1.476247540281309e-05 
-0.0003170297822319433 
0.0002116822685244047 
9.863131898600015e-07 
4.380665375303216e-05 
3.010460177758798e-06 
-0.0005127265246508926 
0.0008294928406579366 
0.05022301757537412 
0.0001414498973542009 
9.528174673652228e-05 
6.721238008660213e-05 
-0.001516009513497359 
-5.829297298525135e-06 
2.067009270204562e-05 
-0.002211422782126952 
4.285595168105224e-05 
-5.267171319702301e-05 
9.773798236849118e-05 
3.577852616893993e-05 
0.0001337272628818203 
0.0004335654226267193 
0.008703904975424344 
4.205717056913147e-05 
-0.003185027708150891 
5.215761622053731e-05 
3.327085246340275e-06 
-0.00861987961838759 
1.819653691545461e-05 
1.974894626756874e-06 
0.005215629351716785 
2.94468993010753e-05 
-7.383105098215179e-07 
-0.0001383927847673271 
3.284054730418851e-05 
5.813975158829805e-05 
0.06500105400221638 
-0.001667461017624432 
0.0001498324536749895 
4.696923230178372e-05 
-0.002408823319986656 
4.165573401630674e-06 
-0.00339924707336501 
-6.525732572377132e-05 
-2.17739808012492e-07 
0.0006524489973348166 
0.0001965583118850544 
-0.0009228623912047589 
-1.518014831274245e-06 
4.029992881557255e-05 
2.063483205632463e-05 
4.629348530388537e-05 
4.373179155759981e-05 
-6.849236691682631e-06 
0.0001247143566513564 
0.000136012179825603 
-0.0005363699812983682 
0.000283282194590738 
1.847084735256702e-07 
-0.001211932869951965 
9.82291141479099e-06 
0.004534919129813547 
-2.899550866514727e-05 
9.274612758403898e-06 
2.727738920786804e-05 
-9.31671897545162e-06 
2.460523457156553e-05 
5.568185395134181e-05 
0.00322059858668925 
-0.0001284927817405783 
0.0006296512446710526 
8.623775229936317e-05 
-0.0004953076477062319 
4.803851312974782e-05 
0.001714717376863408 
4.582621034234154e-06 
8.479832258444769e-06 
3.378901866432276e-05 
-1.685098499406316e-05 
-0.0004900257113821585 
1.686443212023879e-05 
-3.133562193895318e-06 
5.511712549851574e-05 
-1.186921191754661e-06 
-0.002020128834959385 
-1.118728993291509e-05 
-0.000632994241075031 
0.001176455679038485 
1.81394129451484e-06 
5.746309432889589e-05 
1.590627834619657e-05 
1.059696145702527e-06 
7.506937023038611e-06 
6.550226586571068e-05 
9.403179078278038e-05 
-1.322308153688507e-05 
-0.0001874690017344991 
5.05422227595827e-05 
0.0002964420180112162 
-2.561335133130999e-06 
-1.665562429151418e-05 
6.240532361064839e-05 
3.172462019979514e-05 
2.871031048803319e-06 
3.645929017454909e-05 
0.0001246173329777073 
0.01175737748845585 
0.001170089134330775 
0.002497350821797932 
4.068380692584114e-06 
3.483979620048471e-05 
-1.079169738030385e-06 
-0.0009685653669315673 
1.103239022793044e-05 
-0.0002102106457350107 
0.0001965775380497237 
4.828563312472816e-05 
6.734067650473487e-06 
-0.003744626723859056 
0.008955170459608074 
0.001390604383184615 
6.431439876692861e-06 
0.0002026482146080123 
-2.646811515812011e-06 
4.58247421571366e-05 
1.338112099436082e-05 
-0.0003212632218516548 
5.540537240857184e-05 
-3.271487331782578e-05 
-9.194616029003052e-05 
-0.0001391254393546737 
2.197389887644348e-05 
0.001216683282611773 
6.783548036630358e-05 
0.0001721894359393365 
-0.001125203242357605 
-0.0002539757523030582 
-0.0001540084618044751 
-0.0005327688231171872 
-0.001146335558666887 
0.0004674224883122864 
6.688707025975663e-05 
2.871031048803319e-06 
6.084998894545476e-07 
-5.614367899653962e-06 
0.000586026635813897 
4.566809465281364e-05 
1.242993335863972e-05 
4.782275094481495e-06 
8.486399282996401e-06 
8.411984286878106e-05 
1.368672566142334e-06 
-7.297369834177511e-05 
0.000117534642710468 
-0.0006660421552136107 
5.276066032255155e-06 
0.0001155371917118929 
-1.5638026459119e-05 
3.647704210846765e-06 
-0.08730983544105907 
-5.907752495602018e-06 
0.0001422062476269842 
-0.01802996569167848 
-0.0005050541931707036 
0.0001834310103565263 
-3.655662604854205e-07 
0.0003394083531020282 
0.0001263566253153502 
4.60715565260936e-05 
5.666039107953322e-05 
-5.241379020056254e-05 
-0.0005028283571270744 
1.085453268791621e-05 
-0.0003337020334872621 
0.00016389055000534 
6.727019508278184e-06 
0.0007910807264478254 
0.0001193240311966679 
0.0002518107992754387 
9.601600722502973e-05 
4.620777114055222e-05 
2.738412458078982e-06 
-0.0005173916415989176 
1.220346448643905e-05 
-0.0005363699812983682 
0.0002736689078533845 
6.335934798500773e-06 
0.0006229110400607287 
3.436117510603689e-05 
9.609776466816771e-07 
-8.979456992858275e-05 
7.496849857228524e-05 
-2.889699278217785e-05 
-0.0005152100208689508 
0.0004273604338451155 
2.753622351357246e-07 
0.0003059492164648881 
-7.755224905436745e-07 
1.866107092926604e-05 
-0.0001524017740826243 
4.737633214696645e-05 
3.160819460846374e-05 
-2.758404104715644e-05 
-0.004181250658440459 
-0.02151028037690614 
4.882879811076008e-05 
4.725252951906095e-05 
3.128108815963326e-06 
-2.696108373771268e-05 
0.001892156976570142 
3.445819959860022e-05 
9.592317135473416e-06 
4.042920951730538e-05 
0.0005528410447631695 
5.915231005310453e-05 
0.0054979254060084 
8.07009573504253e-05 
2.869942023907941e-06 
6.313288355104486e-06 
2.49737136338152e-06 
0.0005869458951625342 
4.075372858291003e-06 
5.008393122995543e-05 
-4.119517728674248e-06 
7.849568776659857e-06 
6.002564086514682e-05 
-0.0001896827743264458 
0.0001432748149557479 
5.925966505174822e-06 
0.0007441096420070861 
5.854231513304328e-07 
-1.367196724702332e-06 
-0.0007111411564813562 
0.000133867821549718 
2.251605110390302e-05 
2.185587146089952e-05 
0.0001564546412641995 
0.0006913001850755397 
-0.000486655583601019 
0.0001879297113129738 
1.662606063260437e-05 
8.01300478930102e-06 
7.849568776659857e-06 
1.440994954566319e-05 
-3.933836025391309e-05 
1.930788496014139e-06 
9.814449671112697e-05 
7.29540842169353e-06 
0.0001283465305376289 
2.13940871164762e-05 
2.312705142020142e-05 
-9.644552958306404e-05 
0.0001478936674307089 
-4.958003086785504e-05 
-0.003738343971722408 
4.65964454731149e-07 
4.936495681937698e-07 
7.346331495611085e-05 
1.568130333746005e-05 
-6.709780308442243e-05 
0.0007074295444624279 
0.0005041225384552978 
-2.722512638019581e-06 
0.0001506296965938614 
-1.018790540596044e-05 
1.356267562046894e-05 
-2.911886771366115e-05 
-0.0002284061243246789 
9.09751866938878e-05 
-0.000123431910495756 
4.90465317027686e-06 
-0.02958663155453343 
-0.0001279816269275802 
-1.103056082663837e-05 
5.272554165727111e-05 
0.0001324064995239671 
0.07356369174134041 
0.0001803628499730865 
0.01007054062049502 
-2.17739808012492e-07 
0.00060018627729019 
8.235879361397794e-07 
-3.570186518442142e-05 
-8.315105822101845e-09 
0.0001514625692399013 
1.551950592845955e-05 
1.297641411958801e-05 
0.0007919308114147499 
0.0005048653723093191 
0.0001452095833455551 
0.0007075750556473394 
2.713782369610344e-05 
0.01099326235003106 
3.188991236355437e-05 
2.061615383283515e-05 
-6.356519277470286e-06 
0.0001926232327317948 
-0.01232992883329584 
1.721764495263431e-05 
-0.0002259337379579128 
-2.462675642389172e-06 
-1.621053536833658e-06 
4.662019293113832e-05 
0.0001802283293418703 
-0.07842806359433083 
0.0009660425641439664 
0.0001152959895752147 
2.668574135981714e-05 
-0.0006357238592971735 
-0.0009062883063955357 
-0.0001992976740706416 
-2.656849434930237e-05 
0.006151273982028073 
5.377656370043174e-05 
9.473701061156639e-05 
-0.0005337393196235323 
2.390713272859741e-06 
-7.895137216493012e-05 
1.617245227253014e-05 
-3.944319125885125e-05 
7.74980149569036e-05 
4.828526075524121e-05 
-8.206301629238448e-05 
4.414502796066063e-05 
-0.0002202593291324574 
0.005980892515268256 
5.317433135304134e-05 
-0.0002605309553400594 
-3.008119610868306e-06 
4.510503611255818e-05 
0.06171308920908484 
3.633425579517003e-05 
0.0001386922253039486 
5.819783420651556e-06 
-0.0003825424819523686 
0.000418743352215006 
0.0003551695958884125 
-0.001167020487274814 
2.742142527917645e-06 
8.479832258444769e-06 
-0.002139739203636487 
8.031742349364513e-08 
-0.0002789405561710891 
0.0001335167035702565 
-0.0006096765226803711 
0.00046114285188126 
5.213432243973227e-05 
6.231616553476887e-05 
3.02726932502258e-05 
7.998265985476822e-05 
-0.0001160879613953278 
-0.000349224986908451 
6.721238008660213e-05 
1.927348788329052e-06 
4.508422255043615e-06 
-0.0001792224162108856 
-2.152383673431251e-06 
-0.005788071810992968 
-1.621053536833658e-06 
4.447521487027324e-08 
-1.697893171273537e-06 
5.3357617152696e-05 
7.728364162555789e-05 
-0.0005363699812983682 
1.691106177455709e-05 
0.004611024112363218 
-0.0003897166180008273 
8.550927960149163e-06 
-0.0005187462367793648 
7.899439499178785e-05 
8.496042314535503e-05 
0.0005340500735157335 
2.457893504932089e-06 
0.0002850927038597878 
4.054598139945939e-06 
-3.875120004720376e-05 
6.700268258024712e-05 
3.871212053536686e-05 
0.0002264251210628971 
-7.91601771737469e-06 
1.981975876502076e-05 
5.562532826714397e-05 
-3.359098177226633e-05 
-0.0001118235741424441 
-0.0222426003118105 
-0.000262496911907678 
0.0079517666919275 
-0.0124488450298567 
-0.0005363699812983682 
4.807381105546738e-05 
-0.00356376478995557 
6.254021248441003e-05 
8.880914120698992e-05 
9.496067075783175e-05 
1.178883310291242e-05 
1.082113291124268e-06 
0.0002667373630537062 
8.660994387355245e-06 
0.0003758485395050596 
0.0004494144422625886 
0.0002331290718547371 
1.85687241394247e-05 
1.103652803612746e-05 
3.007891902915642e-05 
5.024096058003109e-05 
-0.0001355682637888679 
0.0006918721724313328 
-2.561906524130925e-05 
-0.001428884966620725 
-0.0003013240392768464 
-0.0001237916990134791 
0.001412268631145621 
-0.002898347673547809 
-0.0004748752041108552 
0.0001564546412641995 
-0.0001331182841970312 
3.706083718109689e-05 
5.430340976173858e-05 
-0.01582368259516208 
1.731398354132452e-06 
0.0002288114653353879 
7.124282243105846e-05 
-0.001251322424413324 
4.437357073773697e-05 
6.499615799241985e-05 
3.736823521655936e-05 
6.974828361321515e-06 
-0.006463329713601871 
-9.466907877047868e-07 
4.63330808797931e-06 
6.574529035239231e-06 
-3.834388510099361e-05 
-0.0004585837643888523 
1.784618547232763e-06 
0.0004815949710565931 
4.589068249591904e-05 
1.940593026252049e-05 
6.721334991241342e-05 
3.847155714222652e-05 
-0.0005905065808419716 
-8.894000137969252e-05 
0.0003897578511369747 
4.44026329646981e-05 
6.440653902962017e-05 
3.370688203028565e-06 
1.754446203952109e-05 
-0.004814459365261157 
-4.417665575221022e-05 
-0.0006672750723588537 
0.0001084490422195504 
0.0001246971134744064 
-0.0008093320991282889 
5.899387884884199e-05 
-0.0001042064037498251 
2.769319653794057e-05 
2.015734462528138e-05 
4.044633490723671e-05 
0.001105104973304743 
0.0003374395855145459 
-7.281500912310573e-05 
2.654717504620685e-06 
6.362016474859307e-05 
1.911474982572929e-07 
6.413548176529939e-05 
-7.00166251809427e-05 
1.570175451998491e-05 
3.78642729549222e-05 
1.974437096142133e-05 
-6.037561830006846e-05 
4.13293834297558e-05 
0.0001242229862713405 
0.0003387213482748806 
-0.0005319186461996421 
8.960065413551185e-05 
-2.448357272898927e-05 
0.0001392008728743664 
8.705581400294261e-05 
-8.701878459364925e-05 
-0.000125955621297635 
-1.247103280323658e-06 
1.347596925793032e-05 
-0.03173451401683376 
-1.061689171043682e-07 
8.479832258444769e-06 
-0.0002276845363374756 
8.804836907467301e-08 
-0.00227024023858722 
0.0003492215765401266 
-0.001137076311161631 
-7.348990144520317e-05 
0.0001666203541039625 
-0.0007182364168022564 
5.058387836468206e-05 
2.220213841940116e-05 
-5.766941894695682e-05 
3.486236692196632e-05 
-0.0007192216159563954 
-1.251188063596501e-05 
0.0001094575117763942 
6.689444591382197e-05 
-9.006089436598992e-05 
-0.000553834718329608 
6.769013422980946e-06 
6.073955550448316e-06 
-1.132328938381601e-05 
2.480390785751197e-06 
2.108086630478041e-05 
1.829939318503978e-06 
6.688707025975663e-05 
2.458771898494762e-05 
6.904673650927992e-05 
-7.875614719758867e-05 
-0.004978508844948762 
5.001247866535393e-05 
0.001862255600394467 
5.79521860473147e-05 
7.832224896903194e-06 
3.931923034265216e-05 
2.215373602113107e-05 
-0.0005363699812983682 
-0.0005363699812983682 
7.8068131904086e-05 
-0.0004191327377329093 
-1.749133574756007e-05 
4.475919811949436e-06 
-0.0001725425025859714 
0.00389225153168659 
-6.282640572431138e-06 
2.141606127678346e-05 
5.770194148259821e-07 
4.579328662696368e-06 
0.000248917729840938 
1.945428500002536e-05 
7.389919079638903e-06 
-0.0006607907600390399 
0.0001759738544056053 
7.979051175486074e-06 
8.37210574515887e-05 
-0.0001625972798229988 
-7.463397020154381e-05 
7.363401637622559e-05 
0.0001181424993485914 
8.553225398714659e-05 
-4.323523268529879e-05 
-6.155957191660153e-06 
0.008727469613486182 
-0.000123261835582836 
0.0004104648433177257 
0.0005851473329284313 
-0.0003577760978017102 
-1.104053148406625e-05 
7.957090892658572e-05 
0.001757204407918277 
-7.724700992636499e-07 
0.0003460575703678958 
-8.84182211166386e-06 
-3.518148849818696e-05 
3.187164086174276e-05 
-0.0008944516029013881 
2.952265042923903e-06 
-0.0006123527835083452 
9.82922546967556e-06 
7.849568776659857e-06 
3.326394378469409e-06 
0.0001116629498116497 
-0.0002504726721959528 
0.0003953917881480833 
-0.0007274944864339234 
0.0001773964025593325 
-3.354027975654339e-05 
3.576857082211014e-06 
3.746723146170218e-05 
-0.004162256911457653 
-0.0001980180054334095 
-3.158552958256484e-06 
9.932829504671245e-05 
-0.0004192917450138414 
1.028143710923119e-05 
6.783769974514824e-06 
0.001224487698722783 
3.550280389546529e-05 
0.002971034530923455 
-0.0001811663413142321 
3.262569756748435e-05 
0.0001892864018195998 
-3.775075397915341e-05 
8.989193018739115e-05 
-0.0002394249776589918 
0.03054525610202423 
1.203102885899816e-05 
0.0004443278450258822 
0.000323980157089974 
0.0001141419879409417 
1.203102885899816e-05 
0.0001822899658380553 
5.67457505598868e-05 
3.592834687097006e-05 
7.406911126516239e-05 
-4.341847674325357e-05 
-2.051312154481915e-05 
4.475919811949436e-06 
9.735836220591665e-06 
6.345389503987332e-05 
6.012842735054719e-05 
0.001093390073209359 
8.604274020281465e-05 
-0.0003247708177795328 
-1.381236127415115e-06 
3.387782859755708e-05 
-0.0004352031985585235 
-0.0002337947730058427 
1.092692781545699e-05 
2.892133421984468e-05 
0.0001589539435640878 
8.796898603964194e-05 
-7.724157373717359e-08 
1.642985315226899e-05 
0.000102359488303963 
-0.01486512401699475 
5.855469428817009e-05 
3.010460177758798e-06 
3.335868467232977e-05 
5.436535489626241e-05 
0.01420977606514008 
1.378989279700808e-07 
3.262569756748435e-05 
8.486905523224058e-06 
0.004047739341366394 
1.99473837385795e-06 
-5.290611712289478e-06 
1.354527634168717e-05 
2.271031058850135e-05 
0.0001268299123988968 
0.0001759738544056053 
-0.0006150850938262151 
-1.552921218209631e-05 
-4.225527330456081e-05 
-0.001931983460432234 
-0.0002706187653154228 
8.491223423373978e-07 
-1.934371552730965e-05 
0.001952957051481613 
-2.291564459524453e-05 
7.582381239447931e-05 
2.148027094817991e-06 
-2.038069731826219e-05 
-3.452460830635183e-05 
7.708440026992439e-05 
-1.172091022141206e-07 
5.442175929569164e-06 
-0.0003169320077523213 
-7.136523349959629e-06 
0.0001710193455053432 
5.895553162283238e-05 
-0.003279849831041447 
-0.0002164205480237419 
1.183405997899842e-05 
7.567468246347803e-05 
-0.00100845893478105 
0.0001531311662220369 
1.088817155565369e-05 
-3.494094077249679e-05 
0.001338422778174141 
-8.371615637140291e-07 
0.0008438724748933811 
-0.005716317970458694 
1.224999625814729e-05 
6.704865273595247e-05 
2.686998785955866e-05 
0.0001771219667019336 
-0.0002774339932543937 
2.969124406532196e-05 
7.363818628103192e-05 
-0.0004579275272869476 
3.310191357479638e-05 
-0.0003215948670975357 
0.0001059121651847079 
3.786985397527154e-05 
3.692427661860975e-05 
0.0003193940895587029 
-3.000678030895713e-07 
-2.742390138051006e-06 
8.418084272637335e-06 
6.17255432700991e-05 
-0.0002058694739599367 
-0.0001235873731647043 
8.41315177038444e-06 
-0.0001793440076249452 
2.421957560857386e-07 
0.0004208182040832126 
0.0002255004203334377 
5.529135712185145e-05 
0.0006908431264008192 
-3.655662604854205e-07 
2.151991518812227e-05 
-0.0001735568785253072 
-0.006643921722304684 
1.356402866817361e-05 
0.000512661375170466 
4.401601604097572e-07 
8.295444872630834e-05 
0.0005590044458571153 
-3.040875829940687e-05 
-0.0001421671530866394 
1.595481420066512e-05 
-9.214217964870891e-06 
6.270069886830138e-05 
0.008556116325661455 
0.0001628562021853502 
3.889051647047106e-05 
2.120829446874792e-05 
-0.001209265874009246 
-1.870202296723448e-07 
0.0001826441644642484 
-0.000104587046048819 
-0.0009352511846888453 
1.322726656660844e-05 
-0.0002287819355769187 
-0.0003443565095115066 
3.460061223950079e-05 
-0.0002433038589591838 
0.004513214599090536 
-0.000369241239852203 
2.227875618310509e-05 
5.346735941231607e-05 
-0.0002768374242488106 
-2.070958193154398e-06 
0.0003070409834763209 
-0.000251002867808913 
-1.036651762888238e-05 
-0.0005086769681330636 
6.582127397850649e-05 
0.0002238200873700718 
0.003696434718385808 
-0.0005337393196235323 
2.891457433057742e-06 
3.535257343529885e-06 
0.0003681216103372248 
-0.004440671421576434 
3.296847651669919e-05 
9.212256276595365e-05 
0.00359728758540414 
5.404372519349899e-05 
6.478636638637817e-05 
9.662021607136826e-05 
0.0001829868700367866 
6.783548036630358e-05 
-0.006619969194021314 
-0.003591674484561363 
-0.002108849842519274 
7.466262872937765e-05 
4.644037050163328e-05 
4.725512738401213e-07 
8.375762953066734e-06 
2.401060617237955e-05 
-0.0004681665101548904 
1.762024550678648e-06 
6.775764342918817e-05 
7.441404747886423e-05 
-8.072264735034516e-06 
6.013351250382755e-05 
0.000484154323201061 
-1.144541668660244e-05 
0.0001364799179321355 
-1.416021445019861e-06 
0.000751788374121286 
0.0001262706942742633 
1.057034408014319e-05 
-7.078732937944848e-05 
-2.198616745229461e-05 
0.002081387877081219 
3.9861655673527e-05 
0.0007594866919595363 
-1.755955954738182e-05 
-2.520975564616924e-05 
0.01211813533188716 
0.0005982202070480104 
3.414928431338387e-05 
0.0007005096699419878 
-0.000741524447651313 
1.688160095018533e-05 
-0.0007833681488030183 
0.00253129479715176 
-0.0005256559253845503 
0.0001530565185042417 
-5.519643266863773e-05 
0.0005838142839617776 
1.007063451293743e-05 
1.653219599404995e-06 
0.0004847689459461084 
1.431168312233511e-06 
0.0001094162136898613 
1.374720929976641e-06 
2.529428900610767e-07 
-2.582602604796525e-06 
1.062465229370982e-06 
2.408638094064806e-06 
0.01800835890852553 
0.0008151840284001547 
9.521708873489579e-05 
1.373411471838034e-05 
5.800191412614808e-05 
2.546486639518491e-05 
9.529977952450653e-05 
-7.32872892899091e-06 
-0.0003269480007381339 
0.002719236707524601 
-0.001511633442981298 
1.855293465137969e-05 
0.0002683257640597731 
0.004887753994885456 
0.0004637668688571402 
1.88540245314778e-05 
9.052124275548118e-07 
0.000209761945102396 
4.23007244127001e-05 
-4.785317938019049e-05 
0.001240777966020339 
5.035578052694179e-05 
-0.002345165657490491 
1.249738867269036e-06 
2.784958532710482e-05 
-0.0004191102124349808 
2.860828603820693e-05 
0.000219359006925646 
-0.0001276357372029949 
-5.715478446098807e-05 
2.794401178742802e-05 
7.0736187130459e-05 
-4.124994060867964e-06 
5.761641128447746e-05 
8.703780229832227e-05 
-0.006864289319486838 
3.434634758058825e-05 
9.393328196387656e-05 
0.0002146417473779224 
0.000104326386771459 
9.535904154600242e-06 
-0.0006579687299632758 
-0.002773209402559364 
-0.002507844689831506 
2.873103694562476e-05 
-1.166741128403929e-05 
5.061883102065571e-05 
1.605467538439823e-05 
-0.0001021593738858967 
6.849967389866232e-07 
-0.0002140709074387661 
0.001217527320455443 
-4.497637586704441e-05 
2.495934825143418e-05 
-4.168897854310246e-05 
0.0001635687423621834 
5.264683944019864e-05 
1.50317678868906e-06 
0.0001721056391613943 
-0.0001657875692433557 
3.87490074784518e-05 
-0.0001044688049078597 
-2.282434908746516e-05 
-0.0003462486618508198 
-0.003621542837848029 
2.501144389178376e-05 
5.427970106120357e-05 
-0.0001722897818067931 
2.277570912574089e-05 
1.55874800812321e-05 
0.0006903862496906341 
2.543949677533433e-05 
5.721674478823871e-06 
-8.179201498565355e-05 
0.0001108001380472546 
-1.384175267564193e-05 
7.751229969618851e-05 
3.638349150612056e-05 
7.202369878230508e-05 
2.192230744965162e-06 
0.0005232684287761334 
0.0002317765625640755 
0.0001099453067470655 
0.0002887927892917274 
7.292768867163933e-05 
-0.005183605842009342 
-3.693299130470442e-06 
1.534475236070101e-05 
-2.371171606901359e-05 
6.695354964494988e-06 
6.334241024681142e-06 
-1.946200855550651e-05 
0.0001333174893101017 
-0.001546607125038887 
-2.799322602776462e-05 
-0.0005337393196235323 
-2.099562503386399e-05 
1.831813567936318e-06 
-3.762916084748792e-05 
-0.0002877079117795644 
0.001551911354245633 
-4.174849350707164e-05 
-0.0008290047609216963 
0.0008523321368996328 
-1.411895780879165e-06 
7.29540842169353e-06 
4.869997033829143e-06 
-5.115150117632163e-06 
6.917157383586302e-05 
4.075372858291003e-06 
-0.0001276357372029949 
1.80883263783658e-05 
2.268991786467887e-05 
0.0001982239760693696 
2.469408851090739e-06 
1.188245754014414e-06 
0.0002535518891538362 
0.0002713909095760949 
7.117260129950556e-05 
-1.426461857679911e-05 
0.0005304862592848326 
7.672081130030424e-05 
6.609757572127518e-05 
1.062117991204861e-05 
9.035310921610887e-06 
3.391007167043402e-06 
0.0005406151585539271 
6.141014144975819e-06 
-3.172115140636557e-05 
3.843497088036995e-05 
-0.0001396283593871185 
6.69781464911245e-05 
0.0002209940352318747 
8.215707462193793e-05 
-0.0002337237698966494 
3.647704210846765e-06 
3.193593798461226e-05 
1.468506218374746e-05 
-0.0001250185120847711 
-0.0006660421552136107 
8.949143539448604e-06 
-8.221217755922668e-06 
3.100383226164999e-06 
-8.90522273226887e-05 
-0.0001190589507283745 
-1.108079286938301e-05 
0.0004636600029094032 
0.0007242733970556915 
-1.399661301388231e-05 
6.43844004020524e-05 
0.0002205002330814836 
4.141804289580876e-05 
-2.36615784865571e-05 
-0.000462876793551395 
0.0001198226985503992 
0.0003583083903193178 
-6.200205398614351e-05 
2.604660208282508e-05 
-0.0002373337147174496 
7.1721202176967e-06 
-7.298795858818201e-07 
-0.0002291322400336267 
0.000112343804757227 
-7.255618540131198e-05 
-7.0668953750373e-06 
6.247259758202068e-06 
2.731777464813669e-05 
-0.000388295138158783 
7.363401637622559e-05 
2.163274505691243e-05 
-0.0003080589855791982 
6.50775763539992e-05 
2.738642941600512e-05 
4.508422255043615e-06 
4.420895331798768e-05 
0.0002382072616898905 
-0.0002302387331047434 
1.416827761858032e-05 
-0.0001038740392091907 
8.965964004200281e-07 
-4.929133725612123e-06 
0.01564573646108675 
6.904673650927992e-05 
2.627531927057549e-05 
-0.0001757945709418374 
1.378989279700808e-07 
-2.660851818729542e-06 
-0.0009384129916821425 
7.158958014552157e-05 
3.476550102457577e-05 
-0.0008725375763950558 
5.244178217080962e-05 
-0.01162120675081817 
0.0001713610719533698 
0.0001221026108783761 
-0.0005363699812983682 
-9.312824930021856e-05 
-0.001134971448272538 
5.880854626542556e-05 
-4.367650362730074e-06 
-6.688503815505653e-05 
4.662019293113832e-05 
6.478636638637817e-05 
-1.451354080938164e-05 
2.85166794542902e-05 
1.113494368760399e-05 
-6.136860242941993e-05 
2.727382664685095e-05 
0.00169486001028834 
0.0001588917341102247 
2.527901536184376e-05 
9.463653890834783e-06 
2.148027094817991e-06 
0.0007387065492217211 
4.873099635094866e-05 
-7.437939983362967e-05 
4.137986684936875e-05 
1.862222216203322e-06 
4.377774111691909e-05 
9.82291141479099e-06 
2.322289561422442e-05 
9.26661617595862e-06 
0.0007705126622435821 
3.187592929275255e-05 
-4.416591047069209e-05 
3.031713749933315e-05 
7.932674272519265e-05 
-0.000417995416446018 
8.758974428307701e-07 
-0.002020915588289346 
1.784618547232763e-06 
0.003608760082071282 
2.745857985848034e-05 
0.0001192147901478388 
0.0001241615018142439 
0.0006765143440461609 
-0.000410218694156342 
-1.640586102108196e-05 
0.0001799865627908085 
5.601919562982427e-05 
2.150079011869163e-05 
2.408638094064806e-06 
-0.000115503532893709 
-1.992234005914484e-05 
-5.74626393847761e-05 
9.82791559425272e-05 
-3.271487331782578e-05 
-0.0001299395096785488 
0.0007401167575572864 
7.849568776659857e-06 
1.428320337100587e-05 
-0.0005287704056244932 
9.562740966185346e-05 
2.604660208282508e-05 
1.896459673279171e-05 
1.89222288991627e-05 
8.479832258444769e-06 
-7.91601771737469e-06 
-0.000536044632440761 
6.271008454301164e-08 
7.72729859886901e-06 
-0.0005233443963614983 
4.538003993379487e-05 
-3.055665670466538e-05 
-1.36565431857757e-07 
-3.293358917670358e-06 
9.824336207290511e-05 
-2.455533847955949e-05 
0.000483403847053313 
-1.701297950687353e-05 
0.0001036997563411738 
9.477845988350326e-05 
0.001381641123654831 
5.083816963655328e-05 
0.0001535204917381605 
0.001206337811248427 
6.86442990893778e-06 
5.189361137842354e-05 
-7.149315656287006e-05 
4.475919811949436e-06 
4.990085546579865e-06 
-0.0004023864039676976 
1.689939228871869e-05 
8.411050335324315e-05 
0.0001233547494488409 
-9.525591902227279e-06 
4.360015930526198e-05 
-4.816506112292231e-07 
2.492099424768309e-05 
2.94468993010753e-05 
3.116771820749478e-05 
-0.0004388771389799974 
0.0002234827975598814 
-0.0001440027868007358 
0.0006005416183911276 
0.002450141511005162 
3.796653994569975e-07 
-0.0001237490697702964 
-0.0001147875880061324 
1.935606174182415e-05 
1.272205476408895e-05 
8.728221954680562e-06 
-0.001725842713407734 
0.0009169114306234582 
0.001515709073315794 
-4.929278378021742e-06 
0.000111644992427654 
0.0002502617373728421 
1.064701226898547e-05 
-0.0001276357372029949 
-8.048952834191191e-05 
-8.94782585517658e-05 
5.106928260539044e-07 
-0.0001229835760983096 
-3.951434492184468e-05 
-0.01308037670344319 
-0.002536469148478052 
-2.024195762514546e-06 
3.75068865060736e-05 
6.615150117329199e-05 
9.438045825210051e-05 
0.00210640067020356 
0.002362231499994601 
7.039477853434325e-06 
6.176175453650516e-06 
-0.001448737732186026 
5.93274252953226e-05 
-0.005686475534497124 
1.646671127476756e-05 
4.659064152737452e-05 
5.35147429177622e-05 
5.529135712185145e-05 
8.553672284428884e-05 
3.162521823313811e-06 
-0.005009226360002733 
0.0009815855115813041 
-0.001597862239165716 
0.0003477967309927702 
-0.0001762366044567686 
-9.463157696964427e-05 
6.303252446189844e-06 
-5.226987943069357e-07 
-9.525591902227279e-06 
2.434732448253069e-05 
-8.90769961438745e-05 
0.0002713909095760949 
-0.001476258473170609 
-1.574570832851645e-05 
5.307522214371221e-05 
3.099839893978127e-05 
1.118401312040737e-05 
-0.002097019350435152 
-0.0008643777936855969 
1.873910730768426e-05 
0.0001250353759952521 
5.960520156077424e-05 
-0.0003380693387540278 
0.000160206769266531 
0.001518287164029835 
1.215899008403439e-05 
9.699840784561507e-06 
0.0007050198617770871 
-0.0009089939515812019 
4.952731162760149e-05 
9.03607465960692e-05 
-0.0005364213468359576 
3.830037191178602e-05 
-0.0005794843741623202 
1.559681439113376e-06 
1.866107092926604e-05 
6.291808410590407e-05 
-1.134426295274782e-05 
5.819783420651556e-06 
-0.0004277715772722863 
1.707730858245383e-06 
6.83400523084718e-05 
-0.001127918726525538 
0.0004721856909772009 
3.317632606889123e-07 
-0.0001012974273192171 
0.001647214868445229 
-5.500672796326928e-07 
0.0004813014951449522 
-0.0003834047121045406 
0.0003174421914714164 
0.0002869190691442037 
-0.0001199185741634644 
-7.64913064820337e-05 
-1.260482107953508e-06 
0.0003459914572295826 
0.03574169730303329 
3.845513390148057e-05 
-5.557869609442333e-06 
4.045644517420744e-05 
1.306619225229114e-05 
-5.805534183212983e-05 
4.582621034234154e-06 
0.00342788593994177 
-1.177893343229719e-06 
-2.433558734295067e-05 
0.0001143267573189184 
-0.0003048859897867236 
0.0002535518891538362 
-1.286954177077795e-06 
-5.115150117632163e-06 
-4.551827841267876e-05 
0.0003072861673672635 
6.793813289283687e-05 
3.191917659730669e-05 
4.63330808797931e-06 
-0.001240767701387328 
2.238171074266926e-05 
2.285018818449801e-05 
6.783548036630358e-05 
0.000346292959644591 
5.863782059383314e-05 
-0.0002191013416565301 
0.000124147059765781 
2.274595348407784e-06 
4.385223794500613e-05 
-0.0003020162092116328 
-0.00307182913771333 
2.415362022008409e-05 
4.032402687611502e-05 
-0.0002829077202590159 
-1.147314616002832e-06 
3.104148196995143e-05 
0.0005353848099119712 
1.934460896883889e-06 
1.975731317595348e-06 
-0.0131628158444584 
-2.479833142240999e-05 
0.000240916249657475 
0.001029250182329405 
0.0008858581985742053 
3.396507706882e-06 
7.500608879201594e-06 
0.0009019549052627433 
-0.0009369787853469921 
3.438743183376425e-05 
4.369539110401478e-05 
1.057034408014319e-05 
6.003012420886733e-06 
7.425590567160229e-05 
6.634074415505407e-05 
0.0005243190629701927 
6.367531529833796e-06 
6.296227348372521e-06 
-0.0005363699812983682 
-6.322924310039615e-05 
-0.0005363699812983682 
0.00106190942554423 
9.903877541250124e-05 
4.825463843814327e-05 
0.001078954319639665 
5.141956797421914e-05 
0.0008037797453309847 
-0.001105997450484414 
6.783548036630358e-05 
0.000165119650954174 
-0.0003538125784433246 
0.0006650585753697522 
2.42007261648672e-05 
0.0003792705666906129 
4.498818162174233e-05 
-0.0002302387331047434 
2.948221561349565e-07 
4.209042136318668e-06 
-8.345854089192143e-05 
-3.818580171655654e-05 
5.200873746065387e-06 
-0.0001611308679882102 
-3.114463306539954e-06 
-0.0006660421552136107 
6.20624753980693e-06 
3.407349444743559e-05 
3.848568761038744e-07 
-0.0002767957769588924 
1.62241240896951e-05 
0.006514615565111393 
5.260691073353005e-05 
5.395987443008602e-05 
-1.75536999797671e-05 
0.003844211376903161 
2.015734462528138e-05 
-4.384355314925963e-05 
6.283765113885368e-06 
-0.0003910609064982351 
7.749024992570252e-06 
-9.161724677839573e-06 
8.93340942210708e-07 
0.0002066149108509127 
5.008131260978801e-05 
7.941625053531796e-05 
6.478636638637817e-05 
-8.06274624038414e-05 
2.638477812761048e-05 
3.706083718109689e-05 
-1.356599130945746e-05 
2.301716733842167e-06 
9.365623070043896e-05 
0.0005601318918815599 
4.973873068450124e-05 
2.61290581718875e-05 
-0.007006440306502102 
3.142294082949511e-05 
2.85915578043185e-05 
0.0001099385463563391 
0.0008321786379464247 
-0.003882408850248939 
4.140948595926611e-06 
-2.428760689293908e-05 
-0.0005804980241386595 
-8.247740708060116e-05 
0.004389447764265628 
6.783548036630358e-05 
3.010460177758798e-06 
-2.877948582946777e-05 
-7.724157373717359e-08 
0.00129432876783135 
0.0005794456192045119 
-1.208169703903419e-06 
5.058387836468206e-05 
-5.803413945287226e-05 
0.0001730209029606052 
0.002686127186995747 
-0.000340461158376593 
6.499615799241985e-05 
9.222093705574119e-06 
4.554499305170246e-05 
0.0001267422773136138 
1.174777672511597e-05 
-6.088611971964315e-05 
-6.986341303215227e-06 
-0.0003927777815985293 
0.0002086017647722065 
0.0002084166729498885 
-1.384175267564193e-05 
-0.001259311791425289 
0.0001211079696585403 
-0.0002218184259608427 
0.002957830742312624 
7.304112008061607e-05 
8.647320615297033e-05 
3.903159529402913e-05 
-0.0009518216337822481 
-1.558803142037323e-06 
3.266758824771077e-06 
-0.004857010457079708 
3.91763438143627e-05 
0.0004721665657443646 
0.001041585110623507 
-0.0009607963276182458 
8.099290411350914e-05 
-0.003314883660000763 
6.432531375502807e-06 
3.167274511027255e-05 
3.205979881812103e-06 
-0.0185295261581633 
-0.001968798594411993 
5.186640732760296e-06 
-8.258826925309633e-05 
2.058542499887527e-05 
1.630665513253418e-05 
1.058562811803285e-07 
-1.637610226252087e-05 
0.0002767407280439571 
9.237343039678211e-06 
4.671484800676235e-05 
3.245033225078902e-05 
0.0001058862685848496 
6.501104325217885e-05 
8.472405274664509e-05 
1.395261479413162e-06 
-4.742424289552026e-05 
6.783548036630358e-05 
3.311668711876218e-05 
4.007232738691017e-06 
-0.0004450836248511942 
-5.13655375893925e-08 
-0.0001371617119394597 
6.478636638637817e-05 
5.977282692432994e-08 
2.47779746410162e-05 
2.206854554355052e-05 
1.386935892136654e-05 
0.0001218150003179708 
0.0009470893166419506 
4.381816301360004e-07 
5.646386148220577e-05 
-0.00045387854233868 
7.292768867163933e-05 
1.125440063345689e-05 
-5.619818242376535e-05 
4.045852558170026e-07 
1.04834996923006e-05 
-2.951481359812258e-05 
1.956396203013452e-05 
-0.001635883015438497 
3.756143708492361e-06 
-9.240048319307683e-07 
-5.461467500665032e-08 
0.0001249681479937399 
0.001262201240888559 
1.52417376307897e-05 
-2.067858359575414e-05 
-2.038155591947683e-05 
1.142452130814177e-05 
1.102942932074003e-05 
-2.048985418200142e-05 
-2.537398970547077e-07 
-5.995396084668321e-05 
1.043967639992108e-05 
6.783548036630358e-05 
0.06813791710449386 
-0.0005733479717403335 
4.093844784183167e-05 
-0.001775084044385225 
1.115783250050294e-05 
2.604777461694373e-05 
0.0007229465365921482 
3.386532933371998e-05 
6.499046650031852e-05 
0.0002739660571310154 
8.015502151331556e-05 
0.008868236976764702 
-0.000190328858413677 
1.119836190154261e-05 
-0.000285359401973708 
9.734128220519765e-07 
2.310084562334247e-05 
1.974107159136969e-05 
-0.0001482815398229577 
-0.0002113892682464991 
0.002561828493727021 
-3.62613641956329e-05 
-5.357459694042562e-05 
1.845517037333911e-05 
3.706083718109689e-05 
2.716991547024785e-05 
8.479832258444769e-06 
-0.0002892429611844121 
9.016844510087231e-06 
5.170800794634618e-05 
5.25041656780291e-06 
-0.0002388695470591669 
2.234223655373111e-06 
1.088728175341293e-06 
-0.0001993699068615149 
6.721238008660213e-05 
-2.77563936088065e-05 
1.107914951465636e-05 
-0.0001717006739875053 
4.115475126429004e-05 
1.266834919222581e-05 
0.0003105041878320436 
-0.005884036152314802 
0.002467126970126168 
0.000309852576046514 
5.530086408089327e-05 
2.89278447138993e-06 
2.731777464813669e-05 
7.652825925212085e-05 
5.264683944019864e-05 
-0.0005096833973618506 
1.580669626713559e-06 
0.0001529736185519172 
-0.0003346045449126239 
-0.0003115757351245525 
0.0008431566994860479 
0.001158109125287195 
-1.870202296723448e-07 
7.99874794869276e-05 
0.0001205224819331553 
0.0002821392849941453 
1.792295424333648e-05 
-3.324439390834826e-05 
0.0001020634561336851 
0.0001240132507821551 
3.940509079325882e-05 
-4.51277523568041e-05 
3.088155228522582e-05 
0.0001932352099912751 
-0.0002872711038438972 
1.205148602697522e-05 
0.000202748933724195 
9.325624213192598e-05 
-0.0006605837006453318 
9.300126522190428e-05 
2.192230744965162e-06 
0.0006195656426454952 
1.784618547232763e-06 
0.000169823814639968 
-0.0002868887807441975 
-0.0001990108629060691 
0.0004807996687632649 
2.015734462528138e-05 
-0.0001067582758788787 
-9.517154532413881e-07 
-0.0001638895292129377 
-0.008742515690721306 
-0.0003244864260948234 
-0.0004141819177843716 
0.0001067076624552781 
-0.01003550391361306 
-0.001329886561941887 
2.631619754115278e-05 
1.677406957572983e-05 
0.0001713626847377746 
0.0001798595457653296 
1.403593774748568e-05 
0.0001732935379393509 
-2.248504599202896e-07 
4.815369638292546e-05 
-0.0002218162034397282 
6.721238008660213e-05 
-3.343307601235901e-05 
8.19211315609106e-06 
-2.065212152729575e-05 
6.783548036630358e-05 
1.427485464509693e-05 
3.395861940993987e-05 
4.743493701203937e-06 
0.01973438785870324 
-0.0002219009650431641 
0.0001349895759422611 
0.0007427327401719234 
-0.01088211003811086 
4.749110084047008e-06 
3.416246947874127e-05 
-3.381528291906743e-05 
0.0001266469799506438 
0.0003520662561304731 
0.001881704195867697 
0.0003035532269337167 
3.692905843598074e-06 
0.0001286699240692875 
-0.0001361496657818398 
1.395506761228977e-05 
5.577818642433567e-06 
0.0002463579435595951 
4.693678781885337e-05 
0.002331799334422921 
-0.0004592298438237136 
-0.0005045658426126629 
-0.0002947087751280049 
5.840786100277854e-07 
-0.0003250805813750494 
-0.0002076739953980877 
6.721238008660213e-05 
6.43919442944983e-05 
0.0001209971723645985 
3.496041712519622e-05 
4.679296910352092e-06 
0.0003401072590836337 
4.63330808797931e-06 
-0.00130769802387979 
-3.787926926080492e-05 
-8.235741563887981e-05 
-0.006150146419079138 
-1.876967399102449e-06 
0.0003807706745812906 
6.95067409456768e-06 
-0.0001201788344700388 
2.612942607083848e-05 
-3.040421303493139e-05 
0.0002223630875710197 
-4.973188652704568e-05 
0.0001793218187006037 
-0.0003201628992846388 
-0.0002556339996223191 
-0.005241190701242551 
6.882163676608928e-05 
0.000625339641205899 
-0.0005088682199304702 
0.000310569220397473 
-0.0001564759955392599 
0.001731530997187106 
7.828771560336129e-05 
2.413146754727937e-06 
0.0001145493869860959 
-1.299776173802911e-06 
0.000201083748734364 
0.0003743974967640509 
0.000112351432783468 
-1.483211352194794e-05 
-6.7069716621091e-05 
0.01168510254688123 
2.528730785377371e-05 
0.0009333364984468893 
5.361253430511677e-05 
6.155239677335427e-06 
-0.0003413257530680988 
1.048036917863442e-05 
0.0001861763574903785 
5.900471531594156e-05 
-0.0002723235883129918 
1.575637125418153e-05 
-1.673244091351669e-05 
8.248350611873757e-05 
0.0004794651597199715 
-0.0002102106457350107 
-7.388537716760553e-05 
3.346093286725944e-05 
1.850777737292942e-05 
-0.0002943361248809994 
5.106599889100632e-06 
4.990085546579865e-06 
1.258488101199475e-05 
-0.01047332411486197 
0.000109662879503594 
0.0001410659842198016 
-0.01510274449817131 
6.240532361064839e-05 
3.436117510603689e-05 
-0.0002519112425952699 
-2.063478942484554e-07 
0.0001399871056691888 
7.999238297101576e-05 
0.0005136777291329731 
-8.760659220697487e-07 
1.761426878396641e-05 
0.0001184915924876818 
4.075372858291003e-06 
6.070364548236156e-07 
3.991960867213848e-07 
0.000903159498634603 
0.0004298707484545132 
-9.615913729069528e-07 
0.000103622849007148 
-3.873208088803856e-05 
1.430414301910347e-05 
0.003167348189237483 
0.000149876818896023 
0.0009661747683906922 
2.306430374292682e-05 
0.0002159912683134119 
0.000136910295754591 
6.274870018164048e-05 
-2.722512638019581e-06 
0.0007054535859237417 
4.322984863698958e-05 
-0.0002574227013012546 
5.530603605886573e-05 
3.22622672171838e-05 
6.274878331369372e-05 
0.0001176577749021247 
2.639132052638877e-05 
-0.001828565122478083 
0.0003166888798840301 
5.793263825952749e-06 
-0.002705934713256577 
-0.01078567007332783 
0.000742649482443337 
3.663701352961641e-05 
0.0008035155494622303 
8.681389203124143e-05 
3.482024560805388e-05 
7.749024992570252e-06 
4.654691404594019e-06 
8.282968268749667e-07 
0.0001155263532176268 
2.61290581718875e-05 
0.008694698822530727 
5.346056144919656e-05 
1.709092632094679e-05 
4.976940201443073e-05 
3.441418137344278e-05 
6.985197479258525e-05 
6.783548036630358e-05 
4.710933709760311e-05 
-9.192626652782231e-05 
1.899191496152496e-08 
-0.0003110829189659798 
3.668075094727371e-05 
8.21523737423694e-06 
9.936349564257553e-05 
1.726202609404239e-05 
4.276080502162411e-05 
4.475919811949436e-06 
-0.00101373724042911 
7.944747329102168e-05 
-0.000646826408865689 
6.274961536851728e-05 
-4.036122524463807e-05 
-0.000473585971751002 
2.469408851090739e-06 
-0.0007877526512601423 
0.000316796216259865 
2.802143804059004e-06 
-0.002341786805817968 
8.018949606467853e-05 
6.400947140680553e-06 
1.599082870655343e-05 
2.125891398389384e-05 
-1.967208799474621e-06 
0.0001071356607823606 
-0.07035206848555109 
2.316334841158286e-05 
0.0002533285323222704 
0.0001356720451045176 
-1.987775916776812e-08 
2.480390785751197e-06 
0.0002588587845536268 
0.00358053822125116 
1.322726656660844e-05 
1.192494163495086e-05 
3.391007167043402e-06 
0.0006125650393915432 
-0.000837672588085407 
6.974828361321515e-06 
1.451015495307797e-06 
-0.0005750410062211072 
6.768178619496357e-05 
0.0001396806759489181 
0.0003912185260947549 
-0.0002781141976244655 
-9.705583847488164e-07 
-0.0001204787386851235 
-0.0008623040615987671 
0.0001686519283071862 
4.209042136318668e-06 
3.657035578961868e-06 
-3.103501154536167e-07 
-7.066480757341302e-06 
-1.732598964025322e-07 
-0.02302493574224616 
3.020731845280096e-05 
7.580184632676521e-05 
-2.462219974229541e-06 
-0.0007693384567946373 
0.000210315844116564 
4.339252962369584e-07 
1.666909592779523e-05 
5.544701321120088e-06 
0.0001662074751114448 
1.150412392863827e-05 
-0.002464844906637004 
4.693819615428265e-06 
0.0001179591000169322 
1.777418688161475e-05 
0.0006410766194722205 
5.97518896221847e-05 
-0.001424531268602979 
-1.220441514244834e-07 
4.358146570710767e-05 
-0.0001676224418170811 
6.783548036630358e-05 
0.0009573906966543827 
-0.0006379549409744889 
2.395614769954409e-05 
-0.0004592170908516349 
1.988644248064963e-05 
0.0001326413340726886 
5.223851667390034e-05 
-6.662573789439259e-05 
2.910979881593696e-05 
6.189110412269324e-05 
0.0001053510605963368 
2.164592459313076e-06 
1.983078968986311e-05 
-1.029718153510313e-06 
0.0001370107999093648 
0.0001134918263543752 
0.001226646551677854 
7.268318869305181e-06 
-2.637116131944428e-05 
-2.704534749533438e-05 
-5.921098326149123e-05 
-0.00019315510147733 
-0.0004088864143442699 
-0.03868323355643812 
0.0002763104352700016 
7.589625784373004e-06 
7.639459918555474e-05 
0.0003300041773542615 
4.679588544616016e-05 
-0.004872212800254883 
4.161331622316294e-05 
-0.005105930835541565 
-0.0001386651764847118 
0.00120664490864779 
0.0009922364991049194 
-1.025856824369714e-06 
2.286419391644298e-05 
-0.0001772682624852195 
8.250981780471962e-05 
7.583188365526319e-06 
-1.115542634575401e-06 
6.409603103240816e-05 
-1.621053536833658e-06 
0.00114710748069582 
-1.272664890247925e-05 
-2.603790126801252e-05 
-0.00535613931261535 
0.001009551590278238 
-0.0005337393196235323 
-6.399378396071706e-05 
7.258134984380807e-05 
0.0006398612788381457 
-3.724668924667731e-05 
-0.0003646591599548784 
-0.0006597090726402874 
-7.514778858485174e-07 
1.655556954577073e-05 
8.399779871735658e-05 
0.003830333538054267 
2.676901616963013e-05 
5.058387836468206e-05 
0.0003609726948613148 
1.815297361048944e-05 
1.174814208366195e-05 
6.976194349712197e-05 
-0.01076243352856088 
0.000173159752993667 
-1.24777360023911e-05 
0.0003965205470862237 
0.02527376094740343 
9.425583062373227e-05 
3.647704210846765e-06 
-0.001133646520270398 
-0.003739037512583736 
-0.0002054975024378352 
8.965964004200281e-07 
-0.0002544985284112905 
-1.959163048337557e-06 
-0.0002768845137822832 
-2.78930059161184e-05 
9.865129927370352e-06 
0.0001768320206401016 
7.30279559235832e-05 
-1.433272573519309e-06 
-0.003408250311916583 
0.002014969989036668 
6.917157383586302e-05 
1.944989937144428e-05 
8.595869446076968e-06 
0.0001108001380472546 
-0.000825327873343925 
-0.002519483151083858 
4.834969076680294e-05 
3.266478165401534e-05 
-4.972296764131706e-06 
6.598473909062145e-05 
1.228418379581128e-05 
0.0001016153264160305 
6.694190945349018e-06 
4.912557438620142e-05 
0.0001801676475654976 
0.007624004695558199 
0.000248061372712456 
5.697987361415978e-05 
-0.0002314014044522133 
-3.610721583697985e-05 
-0.000533654151089721 
-0.0003147499673293858 
1.880706190923903e-05 
3.312455467873019e-05 
2.992058729763657e-05 
-3.845375318757159e-06 
1.174777672511597e-05 
3.267038424477964e-05 
4.618890982147549e-05 
1.626744288036076e-06 
5.419317027203709e-07 
0.000113512902859206 
-0.0006034842972355157 
1.308304466487735e-05 
3.323451151892127e-06 
-0.0001922601821573254 
1.449907280173099e-05 
9.783395610077611e-06 
5.206413706067257e-05 
-3.76410126085532e-05 
-0.001032466356048825 
-0.0008964437396226382 
0.002799117989343084 
-0.0005409703213194019 
0.0001066757627184377 
8.626881882316525e-06 
1.145730117841841e-05 
-1.917130270258718e-06 
-0.0002270765821968464 
1.330972331861415e-08 
0.0002431658707932268 
-8.464480228452202e-05 
4.538003993379487e-05 
4.58898740331027e-05 
1.41189128460202e-05 
-6.541412190423744e-08 
3.250552162608942e-05 
-8.886937527842715e-05 
-0.0002102640554752658 
4.283466584539621e-05 
-7.669416102089525e-06 
9.634552376259224e-06 
4.366625105107629e-06 
8.712323268955747e-05 
4.220223583135421e-05 
3.63445392448241e-05 
7.352088757415357e-05 
0.0001208685189782628 
0.0002622750763715055 
-0.003313634761630773 
-2.88899554147643e-05 
-6.689131858681042e-05 
1.404651319923687e-05 
0.000369602859471369 
-0.001018245133236578 
0.0005256940940566191 
3.833949655773804e-05 
-9.525591902227279e-06 
2.108169396439307e-05 
-0.0003089706117939658 
0.0008324003625218426 
2.65935610908492e-05 
3.976023419898e-05 
5.05422227595827e-05 
5.409021656540177e-06 
1.443319472680803e-05 
0.003000538032041099 
0.0005360900180045802 
-0.0003170541470199152 
1.892983439804498e-05 
7.428082828204598e-05 
-0.0004949638146947779 
9.179257462312325e-07 
-0.0001557203908237518 
-0.000185044012990848 
6.721334991241342e-05 
-0.0003101055038289437 
6.499615799241985e-05 
-0.0001902392393580885 
4.853005766923781e-07 
1.581696851499094e-05 
-2.248604855859493e-07 
3.44290934149524e-05 
0.000319672750974692 
-0.0001684259684924233 
3.563400059317425e-05 
0.000622207394648224 
4.644970000940021e-05 
7.898907000848553e-07 
-0.0005337393196235323 
0.0001574578323289185 
1.221418201130135e-06 
-0.1394399952682107 
0.002276587886252983 
-1.777263300009442e-06 
1.057034408014319e-05 
-0.0002154032893090541 
-2.530528242681555e-07 
-0.0004733391623742203 
-0.001136902841868768 
-0.0005410752898501996 
3.848568761038744e-07 
4.374620022981993e-05 
1.311616348445966e-06 
6.261320466723176e-06 
0.008339323014294235 
9.513317795490942e-06 
-0.0001118637972777439 
-0.003270380077184195 
-2.512214413822658e-05 
-3.622685172365897e-06 
1.058562811803285e-07 
-0.0003252076170160682 
-7.91601771737469e-06 
-0.0001855115304191106 
2.480390785751197e-06 
0.0001328215253174063 
3.421879984320801e-07 
6.721238008660213e-05 
-2.553768020866512e-05 
6.769803032479379e-06 
-0.00881175983009988 
-2.287063618059178e-05 
-2.082158909880071e-05 
1.468467134820545e-07 
5.648895690676132e-05 
0.0001003765667394857 
1.186030929018184e-05 
8.883798987934678e-05 
0.0001604604872499903 
0.0003916731283560898 
-3.000943389624953e-05 
5.422692916067167e-05 
3.363778044314964e-05 
0.000127129139682253 
-0.0002983307197876142 
-0.0001472193746676646 
0.001078237829939835 
-0.0006686582890704056 
8.287572079630662e-07 
0.0001085024805443788 
4.206405826236664e-05 
7.998329935675859e-05 
0.0006564130131653809 
4.209042136318668e-06 
0.0006280193898637523 
1.845517037333911e-05 
-0.0004648898318643106 
6.665450662739505e-06 
3.477702072677586e-05 
-0.0003246059969696254 
-0.001242123987113855 
6.790591990570103e-07 
0.0009552785839075185 
0.0003804897371966904 
2.94468993010753e-05 
0.0004420757728792599 
-0.002585342807657843 
-0.0001516919938081106 
-0.0009009981994225709 
2.015734462528138e-05 
-0.00194917175615016 
-0.0004944501997822656 
1.764253529057137e-05 
2.546486639518491e-05 
9.907275734739668e-06 
-0.0002354731342374432 
7.166512715326353e-06 
8.636734386019e-06 
-5.693584947438824e-05 
-1.825661358778736e-06 
5.017176164191036e-05 
1.760583827626929e-05 
-0.00169898731115716 
5.215761622053731e-05 
1.103529006793124e-05 
-2.107546287531199e-05 
0.0001502876667255402 
0.001036502551432471 
1.463712241294524e-05 
1.970636177930366e-05 
1.933162179045567e-05 
0.001826347931925509 
2.954856282363414e-06 
-0.0003930240527444366 
-0.0005337393196235323 
0.005490125338318184 
-0.0001043219245866638 
0.0002723861040926491 
-9.37953509184993e-05 
0.0001159274384154917 
1.475932671376035e-05 
-1.673543533166284e-05 
8.411050335324315e-05 
-5.960604716540788e-07 
2.287100696377351e-05 
0.0009819926452485468 
-6.999781995856741e-05 
0.0002272051430325394 
9.970599135563706e-05 
6.378714852907072e-05 
-3.386232831333428e-07 
-0.0005349684638923662 
9.160586353141311e-05 
-9.145031959447301e-05 
0.0007706964590225062 
0.001963038091675215 
1.47789702311909e-05 
-0.0001151456411726433 
0.0001288249872642673 
1.586289659414431e-05 
-8.877741431204559e-05 
5.514791990701369e-06 
0.0003053061765119474 
-0.0003553213565567421 
3.416246947874127e-05 
-0.0003421293229223059 
-0.0003618922329248623 
-0.0009724939837795416 
-4.879657214841996e-05 
-1.36125631900979e-06 
-0.001463023167175883 
-0.0002314014044522133 
4.803851312974782e-05 
1.200547951649913e-06 
2.215373602113107e-05 
-0.0002190079739425471 
7.164321663906356e-05 
5.62746160350073e-06 
0.0001479612889044304 
7.658368194072318e-05 
6.507501361156875e-05 
0.001233018079232845 
8.310022803213801e-05 
-1.313852070935236e-06 
0.0002521379983318014 
1.986608256176776e-05 
9.095430304609367e-05 
-1.322586842844232e-05 
-1.141328246653057e-05 
0.004883878613727475 
5.761487660309798e-07 
0.0001871200463641471 
-7.618847359196362e-05 
6.413548176529939e-05 
4.63330808797931e-06 
-0.001598539599814961 
0.0001035991909283762 
0.0003017260241352803 
2.841275574503844e-05 
7.963444626829839e-08 
2.666678939751633e-05 
0.0001171847322445 
-3.200523435290099e-07 
8.262794639421677e-06 
0.0002901113293484538 
-3.667241071669659e-05 
0.0002183880288125262 
0.0006069143783861016 
0.0004401629556072526 
6.400532808360032e-06 
-0.002272914059454739 
1.340333197495882e-05 
2.393458139909421e-06 
-7.417171949414787e-06 
-0.0005337393196235323 
8.700685612760119e-06 
0.0002879996521937172 
3.869753884714681e-05 
0.004505617750133853 
2.915385816645446e-05 
2.397385472406286e-05 
-2.739256321306334e-05 
-0.000962963033540121 
2.375207984244915e-07 
-1.912101735472171e-05 
-7.91601771737469e-06 
-0.0009413428269685985 
4.075372858291003e-06 
4.13293834297558e-05 
1.281866007911391e-05 
-1.162033859611269e-06 
0.0005566695119390907 
-1.139300301111986e-06 
9.45749404153662e-05 
-9.866543021385154e-05 
0.0003454345320192958 
-1.452389942916644e-05 
-0.0008954323407865236 
-3.778622877486171e-05 
0.001062473982491868 
0.005567843895771113 
1.306452908594375e-05 
3.253001122409597e-05 
0.001246179176351846 
-1.061689171043682e-07 
1.832351452218824e-05 
-3.867340337730622e-06 
-0.0009662988121187578 
3.042499447272738e-07 
0.001311479087581349 
6.111771369047356e-06 
0.0003363877575413005 
2.94468993010753e-05 
0.0001036422994358044 
0.0001662488068478623 
0.0008456974039806546 
0.0001533695888804149 
0.0006235594045310582 
-0.00170570016225534 
-0.0001223912796370757 
-0.0004922962750753798 
2.125892485987975e-05 
0.00553617010061241 
-0.001157495672560303 
6.400532808360032e-06 
2.173407259744159e-05 
0.0001165403776127093 
-3.004423694957697e-05 
0.0001605452131051587 
8.636734386019e-06 
1.540531806623633e-05 
4.833968783200775e-05 
4.380665375303216e-05 
2.126662179481416e-05 
4.475919811949436e-06 
-0.0001481255502034292 
-0.003918563241643777 
3.032383643699146e-05 
-7.805203010566359e-05 
2.610324765053746e-05 
-0.0002838692817733254 
-1.22679820402783e-05 
0.0001346051506060527 
5.780756987840964e-05 
3.619645446783141e-05 
0.0004205006725978939 
